<?xml version="1.0"?>
<opencv_storage>
<opencv_ml_svm>
  <format>3</format>
  <svmType>C_SVC</svmType>
  <kernel>
    <type>LINEAR</type></kernel>
  <C>1.</C>
  <term_criteria><epsilon>1.0000000000000000e-02</epsilon>
    <iterations>1000</iterations></term_criteria>
  <var_count>2500</var_count>
  <class_count>2</class_count>
  <class_labels type_id="opencv-matrix">
    <rows>2</rows>
    <cols>1</cols>
    <dt>i</dt>
    <data>
      0 1</data></class_labels>
  <sv_total>1</sv_total>
  <support_vectors>
    <_>
      5.97906583e-05 6.88372675e-05 7.40332034e-05 7.53214408e-05
      7.74631480e-05 8.23221199e-05 8.03574731e-05 7.61403790e-05
      6.13323791e-05 4.45503065e-05 2.85402202e-05 4.70923187e-05
      6.73805407e-05 9.15605997e-05 9.50373942e-05 6.82192331e-05
      4.26370352e-05 2.17245397e-05 1.32444638e-05 1.48178151e-05
      1.29363434e-05 1.21606045e-05 1.15199946e-05 1.10182264e-05
      1.30583257e-05 1.55325306e-05 2.10375420e-05 2.71737772e-05
      2.65759791e-05 1.90136179e-05 1.77082275e-05 1.82635340e-05
      1.67749076e-05 2.14853480e-05 2.45655374e-05 2.14792926e-05
      1.86263678e-05 1.65540550e-05 1.52619468e-05 1.16598321e-05
      5.16827913e-06 -2.77372578e-06 -2.61866285e-06 -1.23018390e-05
      6.06265758e-08 1.34008201e-06 1.92346442e-06 1.69464022e-06
      -4.63070410e-06 -3.36961534e-06 3.81566642e-05 4.55246009e-05
      4.96542852e-05 5.09756028e-05 5.33468919e-05 5.72649296e-05
      5.50809891e-05 4.99403177e-05 4.37162598e-05 3.48161775e-05
      2.52159534e-05 3.83042352e-05 5.06991419e-05 6.81076344e-05
      7.05789498e-05 5.12489460e-05 3.45958215e-05 1.95393914e-05
      1.35392738e-05 1.60996588e-05 1.66442060e-05 1.73442149e-05
      1.68290680e-05 1.48167246e-05 1.54531335e-05 1.61575172e-05
      1.93855503e-05 2.30861260e-05 2.32561415e-05 1.79371782e-05
      1.77726361e-05 1.78416994e-05 1.84208966e-05 2.22587623e-05
      2.60720972e-05 2.61596688e-05 2.26643642e-05 1.75630976e-05
      1.39335634e-05 1.02682052e-05 6.85459008e-06 3.02030389e-06
      1.10181736e-06 -5.31894727e-07 -1.63563050e-06 1.13890235e-06
      1.60183083e-06 2.32769753e-06 -5.50887364e-07 9.25430399e-08
      1.71414704e-05 2.32084640e-05 2.64812315e-05 2.66534717e-05
      2.89314103e-05 3.17054510e-05 2.84493053e-05 2.29554425e-05
      2.49710538e-05 2.36156648e-05 2.22542421e-05 3.07966766e-05
      3.45369044e-05 4.44432299e-05 4.65180383e-05 3.54952463e-05
      2.55119376e-05 1.80604038e-05 1.49296447e-05 1.73728095e-05
      1.96622295e-05 2.32068069e-05 2.08406600e-05 1.68488132e-05
      1.49735843e-05 1.41817209e-05 1.51306467e-05 1.63010791e-05
      1.78361897e-05 1.75816403e-05 1.91939471e-05 1.93043379e-05
      2.29196357e-05 2.53190210e-05 2.91638771e-05 3.12806842e-05
      2.81536468e-05 2.23377538e-05 1.76010344e-05 1.48139243e-05
      8.60058572e-06 6.47105844e-06 4.15482782e-06 3.97918348e-06
      4.62720709e-06 4.02435535e-06 5.20574758e-06 5.52738220e-06
      4.00552699e-06 3.81682230e-06 1.38245778e-05 1.87440182e-05
      2.17894303e-05 2.03177060e-05 2.18958285e-05 2.27763085e-05
      1.95854918e-05 1.59667325e-05 1.57232535e-05 1.80211482e-05
      1.92790485e-05 2.36894339e-05 2.47915905e-05 3.06267175e-05
      3.08419221e-05 2.44370294e-05 1.96643850e-05 1.71971515e-05
      1.58611474e-05 1.71905594e-05 2.12098621e-05 2.51070596e-05
      2.23774150e-05 1.93235937e-05 1.70353778e-05 1.67638209e-05
      1.68823171e-05 1.69640389e-05 1.75695423e-05 1.99906972e-05
      2.30575442e-05 2.28032004e-05 2.42786755e-05 2.64637638e-05
      2.94025467e-05 2.99388685e-05 2.74680569e-05 2.03492637e-05
      1.47798955e-05 1.06066100e-05 9.27115343e-06 6.04372326e-06
      4.14502938e-06 3.33598564e-06 3.46628804e-06 3.05558819e-06
      9.83843393e-07 3.21377274e-06 4.02068144e-06 4.44963507e-06
      9.12263567e-06 1.40493948e-05 1.74227789e-05 1.46616248e-05
      1.45279473e-05 1.63062068e-05 1.43910811e-05 1.14954073e-05
      1.26638624e-05 1.46583316e-05 1.57982067e-05 1.86407633e-05
      2.26862285e-05 2.82835335e-05 2.78895113e-05 2.29451016e-05
      1.79087874e-05 1.51253535e-05 1.53048059e-05 1.77052498e-05
      2.23180141e-05 2.59012377e-05 2.26937882e-05 2.08792626e-05
      1.83561751e-05 1.78155042e-05 1.88198683e-05 1.95423272e-05
      1.91236886e-05 2.12332852e-05 2.43640534e-05 2.43905924e-05
      2.71365607e-05 2.91726574e-05 3.08632116e-05 3.18449856e-05
      3.02956942e-05 2.29651341e-05 1.65730871e-05 1.10659166e-05
      8.72516102e-06 6.48809510e-06 4.20722108e-06 3.46622369e-06
      2.53890198e-06 3.83109182e-06 2.44083822e-06 -8.35657283e-06
      -8.39991662e-06 2.96735425e-06 -1.85023134e-06 8.86861926e-06
      1.47973706e-05 1.17367908e-05 1.04601268e-05 1.17298578e-05
      1.04879946e-05 9.56923850e-06 9.77485342e-06 1.23045675e-05
      1.26729929e-05 1.66555037e-05 2.22427916e-05 2.86743343e-05
      3.06651600e-05 2.50806352e-05 1.77196616e-05 1.49183479e-05
      1.45832091e-05 1.81033229e-05 2.26125048e-05 2.52768968e-05
      2.26431184e-05 1.99001170e-05 1.65675137e-05 1.57361865e-05
      1.78742212e-05 1.97124937e-05 1.96994770e-05 2.24605792e-05
      2.45842275e-05 2.51867095e-05 2.69252832e-05 2.82930068e-05
      2.94843849e-05 2.92609475e-05 2.67156011e-05 1.97730296e-05
      1.24761018e-05 7.58540727e-06 7.31606769e-06 4.79644359e-06
      3.97889744e-06 2.84111638e-06 3.64108155e-06 2.30851902e-06
      8.25236043e-07 -2.64551090e-05 -2.53435664e-05 1.01130820e-06
      8.42439204e-06 3.77437300e-06 1.36748595e-05 9.08150014e-06
      7.34466948e-06 1.03143066e-05 9.69632401e-06 9.15981582e-06
      8.40533266e-06 1.10292176e-05 1.16679557e-05 1.51856648e-05
      2.01369676e-05 2.55504365e-05 2.90348671e-05 2.22223298e-05
      1.71876145e-05 1.35004057e-05 1.37499328e-05 1.70590683e-05
      2.03874279e-05 2.37482272e-05 1.99699643e-05 1.72678483e-05
      1.44602909e-05 1.36685176e-05 1.53457895e-05 1.73214048e-05
      1.82874228e-05 1.93699416e-05 2.18348105e-05 2.27956862e-05
      2.22347899e-05 2.32087659e-05 2.37444710e-05 2.44373241e-05
      2.24313462e-05 1.71450756e-05 1.21282092e-05 8.69548512e-06
      5.80091637e-06 5.05610979e-06 4.39270207e-06 3.69454733e-06
      3.05269077e-06 2.32236584e-06 -4.72230482e-07 -3.52507122e-05
      -3.24377725e-05 3.77178225e-07 8.90180036e-06 -1.18035605e-05
      -2.76849437e-06 8.00989983e-06 6.04609886e-06 8.67166182e-06
      9.37333698e-06 7.83874748e-06 7.92839273e-06 1.03653801e-05
      9.76063893e-06 1.48880454e-05 2.13609492e-05 2.68919175e-05
      3.00094998e-05 2.17634806e-05 1.53312576e-05 1.24430935e-05
      1.31431980e-05 1.43409270e-05 1.59044448e-05 1.91737836e-05
      1.76696449e-05 1.36849812e-05 1.12687794e-05 1.05330055e-05
      1.21954026e-05 1.43993848e-05 1.44958731e-05 1.55270300e-05
      1.75615332e-05 1.84216315e-05 1.89034654e-05 2.02689789e-05
      1.99134975e-05 1.94601744e-05 1.69740615e-05 1.20541135e-05
      8.51555797e-06 6.14774808e-06 5.10115433e-06 4.21862342e-06
      4.03548893e-06 3.56876808e-06 2.24632777e-06 2.26122552e-06
      -1.76664726e-05 -4.02761179e-05 -3.56307901e-05 1.47369838e-06
      7.82957613e-06 -1.72756863e-05 -1.82930034e-05 5.10595282e-06
      6.43949397e-06 7.90780905e-06 7.43669943e-06 6.56586190e-06
      7.76511206e-06 8.88286377e-06 1.01129936e-05 1.39174481e-05
      2.05455144e-05 2.67646483e-05 2.89794152e-05 2.10242670e-05
      1.62864890e-05 1.39896338e-05 1.36953031e-05 1.44536007e-05
      1.60020809e-05 1.77547299e-05 1.60440668e-05 1.26106734e-05
      9.40654354e-06 7.42211114e-06 9.23481639e-06 1.06504576e-05
      1.31915167e-05 1.39208414e-05 1.39659614e-05 1.55371636e-05
      1.68981751e-05 1.59655992e-05 1.50676315e-05 1.42018762e-05
      1.21073572e-05 8.83689427e-06 6.38866277e-06 5.34562287e-06
      4.73134514e-06 4.84515704e-06 3.72713203e-06 4.20922652e-06
      1.99288138e-06 2.38470057e-06 -2.78357820e-05 -4.07424450e-05
      -3.61702405e-05 1.34817174e-06 6.46641729e-06 -2.67440391e-05
      -2.27603705e-05 7.20291746e-06 6.14068131e-06 5.75997547e-06
      6.31089142e-06 6.16199532e-06 8.06450771e-06 8.27779513e-06
      9.57790508e-06 1.39014837e-05 1.93525611e-05 2.54011593e-05
      2.85288770e-05 2.14357133e-05 1.66954542e-05 1.46453922e-05
      1.29421060e-05 1.34254960e-05 1.52647608e-05 1.58339117e-05
      1.46674520e-05 1.08435397e-05 8.11369046e-06 4.87888292e-06
      5.79600419e-06 8.90070078e-06 1.02767553e-05 1.01676069e-05
      9.68801760e-06 1.30682602e-05 1.27889252e-05 1.30309263e-05
      1.27467729e-05 1.04841984e-05 8.02197246e-06 5.69711256e-06
      3.39609142e-06 2.71440831e-06 2.87307284e-06 4.07843027e-06
      3.65748997e-06 1.69411931e-06 2.53720077e-06 9.29399789e-07
      -2.86614450e-05 -4.40576841e-05 -3.69789559e-05 8.08718482e-07
      6.52129711e-06 -3.21617918e-05 -2.84164707e-05 5.34129776e-06
      7.89497244e-06 7.41707663e-06 6.09408335e-06 6.04715024e-06
      7.68580230e-06 8.42815462e-06 9.48373963e-06 1.37131428e-05
      1.83123593e-05 2.31462182e-05 2.63373731e-05 2.09249665e-05
      1.73803510e-05 1.55770813e-05 1.45983940e-05 1.45584863e-05
      1.58590537e-05 1.67669332e-05 1.47257097e-05 1.06002326e-05
      8.13061797e-06 4.32895558e-06 6.86949761e-06 1.02563590e-05
      1.21184221e-05 1.08959885e-05 9.31937484e-06 1.23180289e-05
      1.22009023e-05 1.15667344e-05 1.17569825e-05 1.08401882e-05
      8.34154071e-06 4.53962093e-06 2.94382471e-06 3.23770519e-06
      2.98960640e-06 3.18979437e-06 2.94253778e-06 1.90785977e-06
      8.01890167e-07 1.10352300e-06 -2.88874016e-05 -4.57854658e-05
      -3.89215493e-05 4.03997660e-07 5.55061615e-06 -3.24837165e-05
      -2.83694899e-05 7.76502930e-06 1.18717098e-05 8.87488022e-06
      7.28145096e-06 3.52501570e-06 6.96404504e-06 7.24973461e-06
      8.23448408e-06 1.16946630e-05 1.57772174e-05 2.01001822e-05
      2.32818747e-05 1.92181615e-05 1.55422658e-05 1.46930106e-05
      1.40266302e-05 1.55493926e-05 1.62566848e-05 1.81120849e-05
      1.56650640e-05 1.15129287e-05 1.00222132e-05 6.35827200e-06
      8.07273409e-06 1.08957884e-05 1.24604403e-05 1.06271700e-05
      9.87174099e-06 1.17423524e-05 1.16052443e-05 1.10548790e-05
      1.08066642e-05 1.00949655e-05 7.76850993e-06 4.64986942e-06
      2.76095011e-06 2.49391201e-06 2.59255648e-06 2.60579282e-06
      1.98969701e-06 5.37171218e-07 -2.25111125e-06 1.10943617e-07
      -3.18189377e-05 -4.49514955e-05 -3.84269006e-05 1.94831728e-06
      4.55071677e-06 -3.09779571e-05 -3.12539014e-05 1.31383986e-05
      1.45686281e-05 8.72452074e-06 8.48036507e-06 3.58531793e-06
      5.32979857e-06 4.74740000e-06 5.27189195e-06 8.16473948e-06
      1.16928841e-05 1.44055912e-05 1.78469581e-05 1.45660197e-05
      1.19985643e-05 1.17855016e-05 1.23945583e-05 1.34824313e-05
      1.38729492e-05 1.51350741e-05 1.47121000e-05 1.12416474e-05
      1.05721119e-05 9.62770628e-06 1.21457824e-05 1.41220853e-05
      1.40116881e-05 1.10898254e-05 8.91892159e-06 9.68678523e-06
      8.82938821e-06 9.83807513e-06 1.00502457e-05 9.08533457e-06
      8.06239041e-06 6.55050462e-06 3.82151575e-06 2.33552578e-06
      1.73917749e-06 3.16597402e-06 1.29496811e-06 -5.17263970e-06
      -3.38983809e-05 -1.79465314e-05 -3.09667375e-05 -4.64675213e-05
      -3.86780230e-05 1.56892770e-06 3.54859571e-06 -3.23103777e-05
      -2.78023072e-05 1.24818025e-05 -4.63453671e-06 1.19815431e-05
      8.31650505e-06 3.95939787e-06 3.68568658e-06 3.62477272e-06
      3.11245958e-06 5.04464560e-06 6.72425267e-06 9.02553347e-06
      1.20132909e-05 9.07220146e-06 7.16366549e-06 7.30692318e-06
      8.19437264e-06 9.38735866e-06 9.86211671e-06 1.07859878e-05
      1.14800641e-05 1.02535287e-05 1.04489100e-05 1.22435013e-05
      1.69969444e-05 1.73530825e-05 1.58293715e-05 1.16607753e-05
      9.92800233e-06 9.29204634e-06 7.15396163e-06 8.25871484e-06
      8.67055314e-06 8.85696863e-06 8.97443715e-06 8.81605047e-06
      6.55056556e-06 4.64226878e-06 1.66964924e-06 9.90078775e-07
      6.19117827e-07 -3.65730994e-05 -5.58258616e-05 -4.60120173e-05
      -3.00724641e-05 -4.83673211e-05 -4.01203797e-05 8.93940125e-07
      2.35033121e-06 -2.90629177e-05 -2.19379654e-05 5.93455206e-06
      -3.14973149e-05 -1.20892091e-05 1.01663709e-05 2.48443871e-06
      3.08344897e-06 2.52181758e-06 1.79496328e-06 2.67756923e-06
      3.55633006e-06 3.74385422e-06 6.75450337e-06 3.92601623e-06
      3.94087192e-06 3.16367004e-06 4.93715788e-06 6.72819397e-06
      6.13290149e-06 6.68068697e-06 8.62666457e-06 1.05984336e-05
      1.48131630e-05 2.02734336e-05 2.61125679e-05 2.43751092e-05
      2.02292485e-05 1.44031637e-05 1.13982987e-05 1.02569957e-05
      6.88925820e-06 6.94285427e-06 7.10375252e-06 7.12690326e-06
      9.01636213e-06 8.85532972e-06 7.71212126e-06 8.12676717e-06
      5.48615071e-06 2.32066782e-06 2.19464141e-06 -7.56854060e-05
      -9.16723729e-05 -7.31180990e-05 -2.82069595e-05 -4.16729199e-05
      -3.57056451e-05 3.01820955e-06 1.76524929e-06 -2.44935691e-05
      -2.82352994e-05 -6.07291349e-06 -4.21612713e-05 -5.17904919e-05
      1.26084415e-05 1.79042922e-06 2.15827799e-06 1.64979269e-06
      5.47426737e-07 1.55751025e-06 8.95373262e-07 3.05683301e-07
      2.45046931e-06 3.59334933e-07 1.41490978e-06 1.26973271e-06
      2.90240519e-06 4.29026022e-06 4.01891793e-06 3.83793258e-06
      7.74319960e-06 1.16197007e-05 2.39520487e-05 3.18919047e-05
      4.07237603e-05 3.71794595e-05 3.05044396e-05 2.16240660e-05
      1.52523235e-05 1.11242807e-05 6.95822155e-06 7.05778621e-06
      6.77685466e-06 7.45841726e-06 9.77067248e-06 1.13518881e-05
      1.13173846e-05 1.10258579e-05 9.83709197e-06 7.00313649e-06
      6.82455902e-06 -9.92136484e-05 -1.14427996e-04 -9.32799303e-05
      -2.74976101e-05 -3.01361306e-05 -3.93951232e-05 -7.48432853e-07
      -3.46037655e-06 -4.79452356e-05 -1.19149125e-04 -9.42985498e-05
      -5.51659214e-05 -6.70511654e-05 -1.46812476e-06 1.41709870e-06
      6.35306890e-07 1.30476872e-06 7.55363033e-07 1.91078513e-07
      -1.89233461e-07 6.83587871e-08 5.17444448e-07 9.43724842e-07
      1.26266707e-06 2.40605937e-06 2.54024985e-06 2.81603843e-06
      3.92709671e-06 4.08707911e-06 7.38426161e-06 1.60454510e-05
      2.81711218e-05 4.98307309e-05 5.67382376e-05 5.16613145e-05
      4.32750530e-05 3.24343600e-05 2.12207615e-05 1.28834572e-05
      7.15660099e-06 5.35532854e-06 4.89684135e-06 5.20385538e-06
      8.11842619e-06 9.79399192e-06 1.32177856e-05 1.43126645e-05
      1.21242365e-05 1.05524632e-05 1.22283554e-05 -9.55658397e-05
      -1.02534766e-04 -8.62839879e-05 -3.11553376e-05 -5.93129771e-05
      -6.98313088e-05 -1.15067696e-05 -4.95710265e-06 -5.90960735e-05
      -1.55627335e-04 -1.57068105e-04 -1.28862448e-04 -8.58601488e-05
      -9.11985808e-06 -4.28872113e-07 1.60526895e-07 3.76671409e-07
      -5.24031748e-07 -3.08471790e-08 -1.89233461e-07 -1.00213903e-07
      1.14262903e-07 9.14228053e-07 9.43724842e-07 1.46150637e-06
      2.58621844e-06 3.23453014e-06 5.08818175e-06 5.24439838e-06
      1.00479328e-05 2.19347603e-05 3.93367009e-05 6.44430038e-05
      7.83287032e-05 7.56732043e-05 6.93898255e-05 5.93109289e-05
      3.98711854e-05 2.12149353e-05 8.72000510e-06 4.37035624e-06
      4.00854515e-06 3.65676783e-06 6.21779100e-06 7.20241587e-06
      1.13171500e-05 1.31553397e-05 1.64594694e-05 1.32727173e-05
      1.28829424e-05 -8.69993091e-05 -9.38018493e-05 -9.12933247e-05
      -3.38315476e-05 -7.44031131e-05 -8.92785247e-05 -4.77504072e-05
      -5.77964147e-06 -4.87844991e-05 -1.46353530e-04 -1.25754246e-04
      -1.73309047e-04 -8.30610152e-05 -5.18942716e-06 1.71365923e-06
      -1.49407128e-06 -1.23546442e-07 -1.12012583e-06 -5.78632466e-07
      -3.64155682e-07 -4.57633888e-07 -2.35708214e-07 6.92302365e-07
      1.19051776e-06 2.34754430e-06 3.60121021e-06 4.52951326e-06
      5.50450386e-06 7.80122809e-06 1.51374416e-05 2.86634004e-05
      4.55049521e-05 7.18677184e-05 9.22412291e-05 9.60602774e-05
      9.78485041e-05 9.26583380e-05 6.36680852e-05 3.38081154e-05
      1.38319147e-05 4.15558088e-06 2.83752138e-06 2.91457104e-06
      3.58809189e-06 3.31686329e-06 8.13776933e-06 9.68755012e-06
      1.43555826e-05 1.11469972e-05 8.28933298e-06 -8.01977294e-05
      -9.24086926e-05 -9.19735612e-05 -1.46156453e-05 -9.13537588e-05
      -1.31199617e-04 -5.88353287e-05 -9.39840993e-06 -3.97282893e-05
      -1.22325335e-04 -1.00324884e-04 -1.44278587e-04 -7.97270186e-05
      -5.32899548e-06 9.18781382e-07 -1.92435164e-06 -1.03641310e-06
      -1.14718239e-06 -1.88344404e-06 -8.00558155e-07 -6.32491833e-07
      -2.35708214e-07 4.07024231e-07 2.10321377e-06 3.07660798e-06
      5.45033481e-06 6.32915226e-06 7.04962576e-06 9.43475607e-06
      1.91773488e-05 3.44740220e-05 5.21206057e-05 7.74261207e-05
      1.04232771e-04 1.17145806e-04 1.30112705e-04 1.30737506e-04
      9.03564360e-05 5.05661083e-05 1.87097176e-05 3.49407401e-06
      1.15418959e-06 1.96265682e-06 1.45484739e-06 1.57479860e-06
      6.14575083e-06 6.10124152e-06 1.21255507e-05 1.30554763e-05
      1.01062360e-05 -7.27754741e-05 -7.62833151e-05 -7.41518452e-05
      4.54909423e-06 -1.05417967e-04 -1.20974873e-04 -6.54456599e-05
      -8.09301218e-06 -3.01033324e-05 -1.02777107e-04 -6.94915943e-05
      -1.22050747e-04 -5.99093000e-05 -6.35590413e-06 6.15070803e-07
      -2.48591959e-06 -2.10126677e-06 -2.25777649e-06 -1.66766188e-06
      -1.49762036e-06 -1.36410119e-06 -2.12314024e-08 4.07024231e-07
      2.08070060e-06 3.32340073e-06 6.26534256e-06 7.98422934e-06
      9.88925331e-06 1.22958645e-05 2.21268638e-05 3.94690651e-05
      5.87555696e-05 8.22086440e-05 1.10941124e-04 1.37958836e-04
      1.65165635e-04 1.71825726e-04 1.19214776e-04 6.63047467e-05
      2.27987039e-05 4.41465954e-06 1.31116394e-06 1.05231504e-06
      5.12253848e-07 1.77525385e-06 6.15602085e-06 4.44610487e-06
      9.46374439e-06 1.23253130e-05 7.04821286e-06 -7.30271204e-05
      -6.36963596e-05 -5.41044355e-05 2.98936266e-05 -7.24205747e-05
      -1.09037494e-04 -6.26961919e-05 -8.18526314e-06 -2.65434192e-05
      -7.87155586e-05 -4.25489852e-05 -1.00785321e-04 -5.08105441e-05
      -7.65851109e-06 -7.39130925e-08 -1.98143448e-06 -1.79989547e-06
      -2.63808852e-06 -2.37507447e-06 -1.82604822e-06 -1.36410119e-06
      -1.96089317e-07 4.07024231e-07 1.53291523e-06 2.11068050e-06
      5.71538749e-06 9.41206054e-06 1.12565776e-05 1.40124857e-05
      2.56639360e-05 4.26790975e-05 6.22436564e-05 8.56356055e-05
      1.12968446e-04 1.45288184e-04 1.79692448e-04 1.91877785e-04
      1.35500435e-04 7.71620034e-05 2.54621809e-05 5.09681968e-06
      1.92446396e-06 1.55272005e-06 5.02996159e-07 5.08106314e-06
      8.92836124e-06 4.11823294e-06 2.47375829e-06 9.45774627e-06
      1.06416710e-05 -6.51274968e-05 -4.87246289e-05 -3.94368071e-05
      3.33086609e-05 -4.89345330e-05 -9.25820714e-05 -6.02664550e-05
      -1.25003498e-05 -2.00428385e-05 -7.18011579e-05 -3.21737643e-05
      -8.34462844e-05 -4.51632077e-05 -1.92563348e-05 -1.29626449e-06
      -1.73464161e-06 -2.01567741e-06 -2.04199455e-06 -2.08931283e-06
      -1.91445474e-06 -1.30435035e-06 -5.79138828e-07 4.07024231e-07
      1.47682476e-06 2.15664909e-06 6.03234457e-06 9.93489266e-06
      1.27421263e-05 1.49493017e-05 2.67035539e-05 4.54710353e-05
      6.59149955e-05 9.22881009e-05 1.17061063e-04 1.43585756e-04
      1.73774155e-04 1.84886143e-04 1.31217865e-04 7.66048906e-05
      2.39744950e-05 5.27668590e-06 2.08444658e-06 9.02518821e-07
      9.51585491e-07 7.77447804e-06 1.37942043e-05 5.50784853e-06
      4.31416447e-06 8.40608300e-06 1.50511296e-05 -5.86945062e-05
      -3.53635151e-05 -1.48117415e-05 4.15493378e-05 -2.59452736e-05
      -7.56641748e-05 -5.91246462e-05 -3.88275612e-06 -9.86675332e-06
      -6.82900936e-05 -3.17962476e-05 -8.08497280e-05 -3.81070713e-05
      -2.01063576e-05 7.09069582e-07 -2.14925058e-06 -1.43715442e-06
      -2.41616272e-06 -2.08931283e-06 -2.46224022e-06 -1.30435035e-06
      -5.79138828e-07 -1.40761088e-07 2.61325522e-06 2.36317351e-06
      6.37436324e-06 1.10919191e-05 1.33844887e-05 1.50081387e-05
      2.71335011e-05 4.60144547e-05 6.54984251e-05 9.25384738e-05
      1.15323237e-04 1.37986717e-04 1.65969861e-04 1.75594483e-04
      1.23026184e-04 7.08674925e-05 2.20056590e-05 4.05369656e-06
      1.46798538e-06 1.36509232e-06 1.19968206e-06 1.02571175e-05
      1.78863047e-05 8.51742334e-06 -4.07737730e-07 6.55308622e-06
      1.48420031e-05 -5.59380132e-05 -3.25888795e-05 -7.98252222e-06
      4.54032015e-05 -1.42997114e-05 -6.39345453e-05 -5.52173988e-05
      4.38118332e-06 -9.88320517e-06 -6.42725936e-05 -3.99646196e-05
      -7.97709727e-05 -3.70317939e-05 -2.37858294e-05 7.35190667e-07
      -1.99086435e-06 -1.04161177e-06 -1.78893197e-06 -1.34461970e-06
      -1.06273001e-06 -7.81053359e-07 7.86239056e-08 7.55463248e-07
      1.44698345e-06 3.73433681e-06 5.92970900e-06 9.88377724e-06
      1.22424162e-05 1.41617538e-05 2.39022520e-05 3.83164443e-05
      5.60370645e-05 7.65044242e-05 9.81393168e-05 1.17074334e-04
      1.38015021e-04 1.48941603e-04 1.04541316e-04 6.04135603e-05
      1.69626364e-05 3.98269412e-06 2.32158482e-06 2.57267766e-06
      6.18172749e-07 1.12711123e-05 2.37567874e-05 9.32617786e-06
      5.18892250e-07 1.19312517e-06 1.22052379e-05 -5.84903428e-05
      -3.35115692e-05 -2.34974868e-06 4.71563362e-05 -7.29507519e-06
      -5.75187623e-05 -5.51657868e-05 1.34614129e-05 -1.49291427e-05
      -6.44197862e-05 -4.58767936e-05 -8.30550780e-05 -3.08814997e-05
      -2.05737160e-05 3.26482223e-06 -1.21540450e-06 -1.28000909e-06
      -1.96378983e-06 -9.96180688e-07 -5.39433017e-07 7.06714971e-08
      7.53886809e-07 1.45361810e-06 1.95431585e-06 4.07374910e-06
      7.14963471e-06 1.17123145e-05 1.38409823e-05 1.42294666e-05
      2.08261717e-05 3.22402993e-05 4.53981083e-05 6.63919927e-05
      8.86233975e-05 1.04021281e-04 1.21598139e-04 1.30669447e-04
      8.98052385e-05 5.01038448e-05 1.56398200e-05 4.50177959e-06
      2.61125388e-06 2.44660600e-06 4.05292354e-07 1.21966805e-05
      2.49508375e-05 9.56846634e-06 1.38760015e-07 -3.86349228e-07
      1.32038413e-05 -6.51633018e-05 -4.02886653e-05 -4.01881243e-06
      4.38310199e-05 -1.33382518e-05 -5.05334174e-05 -4.82372088e-05
      2.17623492e-05 -1.73562385e-05 -6.05192035e-05 -4.87375546e-05
      -8.19358829e-05 -2.40107765e-05 -2.19927624e-05 7.21788365e-06
      1.64103525e-07 -3.82543789e-07 -1.96378983e-06 -1.54396605e-06
      1.98340715e-07 2.65540564e-07 1.27718374e-06 2.18126979e-06
      3.97398207e-06 4.88520300e-06 8.45176692e-06 1.37947563e-05
      1.64669127e-05 1.57739869e-05 1.76138401e-05 2.51065612e-05
      3.46741945e-05 5.17843437e-05 7.34073983e-05 8.96059428e-05
      1.07823493e-04 1.16887488e-04 8.12245926e-05 4.59028852e-05
      1.30837670e-05 4.91727087e-06 3.28872534e-06 4.08869710e-06
      5.51136736e-07 1.34955499e-05 2.78665302e-05 1.11059908e-05
      3.98927767e-07 -3.47374726e-06 1.03453849e-05 -7.21558972e-05
      -4.91227183e-05 -4.91106857e-06 4.34277390e-05 -1.87701153e-05
      -4.96170214e-05 -4.48977044e-05 2.85201786e-05 -1.77441107e-05
      -6.20439532e-05 -5.07401237e-05 -7.62648051e-05 -1.31703910e-05
      -2.13713647e-05 1.01008554e-05 2.77403637e-06 -8.02680574e-07
      -8.91466584e-07 -6.31270041e-07 -1.61360862e-08 9.24331800e-07
      2.62255799e-06 3.44023510e-06 4.80775088e-06 5.79044263e-06
      1.03338298e-05 1.58047551e-05 1.92419247e-05 1.91429699e-05
      1.62219312e-05 2.00377544e-05 2.61460373e-05 3.88865956e-05
      6.08710725e-05 7.84881486e-05 9.82994170e-05 1.08126420e-04
      7.61925330e-05 4.31276603e-05 1.19052684e-05 4.50479547e-06
      4.16446119e-06 3.58799957e-06 5.28244755e-07 1.45075492e-05
      3.04409223e-05 1.21949961e-05 -4.94268079e-07 -4.61300851e-06
      3.65634946e-06 -8.35228493e-05 -6.00915191e-05 -1.34910233e-05
      3.99431883e-05 -3.02066819e-05 -5.12195038e-05 -3.28958304e-05
      3.06898437e-05 -2.09644968e-05 -6.81519014e-05 -5.44004033e-05
      -7.50378094e-05 -7.38320705e-06 -2.44313869e-05 1.11445734e-05
      4.35789934e-06 -1.15111959e-06 -1.26563498e-06 -4.09344352e-07
      8.17164292e-08 9.24331800e-07 2.74267359e-06 4.34274489e-06
      5.80468623e-06 6.24870245e-06 1.27236171e-05 1.93529104e-05
      2.29258148e-05 2.25558724e-05 1.64783178e-05 1.60856889e-05
      2.04101907e-05 3.08787166e-05 5.21779803e-05 6.86832136e-05
      8.64621106e-05 9.36878496e-05 6.64016407e-05 3.69318259e-05
      1.14443619e-05 4.65077073e-06 3.87994260e-06 3.18275761e-06
      1.99247381e-07 1.47614537e-05 3.07066075e-05 1.17656209e-05
      -3.24971893e-06 -4.61744048e-06 1.58563944e-06 -9.56411677e-05
      -8.30309800e-05 -4.36101182e-05 1.37088946e-05 -5.92679353e-05
      -6.57764249e-05 -2.80303502e-05 2.45243755e-05 -3.07555856e-05
      -8.17765904e-05 -6.42896484e-05 -8.33130107e-05 -1.06423431e-05
      -2.80093627e-05 1.15447065e-05 5.71331657e-06 -9.29193959e-07
      -1.03445154e-06 -4.08103375e-07 5.68530595e-07 7.42869076e-07
      2.39423434e-06 4.08477354e-06 6.06835465e-06 6.48214973e-06
      1.48466652e-05 2.39627589e-05 2.50541470e-05 2.44633957e-05
      1.62305623e-05 1.39191552e-05 1.71885331e-05 2.60889119e-05
      4.70355917e-05 6.04852248e-05 7.46469523e-05 7.96789245e-05
      5.77284663e-05 3.32984964e-05 1.07657552e-05 5.69772601e-06
      4.01859825e-06 2.64433424e-06 6.28622274e-07 1.42381568e-05
      2.99758631e-05 1.15051935e-05 -2.50279140e-06 -3.74684623e-06
      -5.97207020e-07 -1.03007937e-04 -1.05377592e-04 -8.53426609e-05
      -3.00125812e-05 -1.03424863e-04 -9.60574471e-05 -3.19064056e-05
      1.53999299e-05 -4.90910679e-05 -1.14221657e-04 -9.57421798e-05
      -1.04190258e-04 -2.35862844e-05 -3.19604405e-05 1.27354260e-05
      7.31581895e-06 2.43411868e-08 -6.74670218e-07 -7.55215126e-07
      5.86101578e-07 1.33765786e-06 2.79741607e-06 4.41320162e-06
      6.51950222e-06 6.86443673e-06 1.63037530e-05 2.74669110e-05
      2.62736339e-05 2.42172719e-05 1.51139739e-05 1.09350549e-05
      1.34887487e-05 2.06341101e-05 4.19596690e-05 5.34540159e-05
      6.51871742e-05 6.93069669e-05 5.11164471e-05 3.09011557e-05
      9.51321090e-06 6.17288515e-06 4.69792712e-06 2.75879415e-06
      7.72068972e-07 1.49181351e-05 2.88861011e-05 1.16451311e-05
      -2.11036217e-06 -5.11521876e-06 -3.94332210e-06 -1.08774570e-04
      -1.22117301e-04 -1.20008706e-04 -6.57089477e-05 -1.43328478e-04
      -1.25099774e-04 -3.78332479e-05 1.08102477e-05 -5.78931758e-05
      -1.43691170e-04 -1.26447499e-04 -1.33985144e-04 -4.76123423e-05
      -4.22347402e-05 1.15661314e-05 8.91937088e-06 1.99199093e-07
      -3.41426016e-07 -7.55215126e-07 4.41497804e-07 9.38434084e-07
      2.50463472e-06 5.03830870e-06 6.91544346e-06 7.24337815e-06
      1.76531230e-05 2.91343367e-05 2.65716826e-05 2.30298920e-05
      1.31876486e-05 8.55258622e-06 1.04996398e-05 1.64362118e-05
      3.75194868e-05 4.82666437e-05 5.89771917e-05 6.16377947e-05
      4.55980444e-05 2.49643781e-05 8.56024599e-06 5.73911393e-06
      4.51429514e-06 2.16867875e-06 6.98830263e-07 1.38693331e-05
      2.81810280e-05 1.06453717e-05 -2.66700567e-06 -4.14587385e-06
      -6.24166387e-06 -1.14087255e-04 -1.41050477e-04 -1.53683053e-04
      -9.84858198e-05 -1.78489048e-04 -1.50593885e-04 -4.98204572e-05
      6.95981180e-06 -6.65422194e-05 -1.63417266e-04 -1.54760521e-04
      -1.53346788e-04 -6.97167197e-05 -4.80176459e-05 1.10509072e-05
      7.83882297e-06 3.00360199e-07 -6.83065764e-07 8.00854309e-07
      7.20688263e-07 3.01142791e-07 2.84713656e-06 5.15440024e-06
      8.52666290e-06 7.60711873e-06 1.87585483e-05 3.26664231e-05
      2.65448780e-05 2.05615888e-05 1.03910888e-05 6.11975838e-06
      8.62354136e-06 1.29864475e-05 3.17299564e-05 4.14485221e-05
      5.07294717e-05 5.55970328e-05 3.76183889e-05 2.38257308e-05
      6.61904960e-06 4.37980589e-06 3.37409892e-06 2.53494068e-06
      1.03849482e-06 9.83391601e-06 2.09885529e-05 8.40056964e-06
      -1.97523764e-06 -5.20140975e-06 -8.86717862e-06 -1.06948071e-04
      -1.41012715e-04 -1.65042744e-04 -1.10624809e-04 -1.99092538e-04
      -1.64925324e-04 -4.54833244e-05 7.57032012e-06 -5.97726721e-05
      -1.58733179e-04 -1.55835820e-04 -1.56787632e-04 -8.23946975e-05
      -5.42010675e-05 9.81503126e-06 8.69089035e-06 2.29083139e-06
      1.91711138e-06 2.63400966e-06 2.39238943e-06 1.79297763e-06
      2.88031720e-06 6.12884469e-06 7.51650668e-06 6.77135858e-06
      1.86757552e-05 3.26654335e-05 2.43982195e-05 1.66512546e-05
      8.11736209e-06 5.80848473e-06 8.26996074e-06 1.22544034e-05
      2.96675335e-05 3.77108227e-05 4.55667941e-05 4.94241285e-05
      3.26406916e-05 1.96977908e-05 6.57172222e-06 4.25140115e-06
      2.82698511e-06 2.30459955e-06 7.72049646e-07 6.23201686e-06
      1.47481333e-05 5.74812248e-06 -9.77032187e-07 -4.01914849e-06
      -2.69599559e-06 -8.66444898e-05 -1.24381724e-04 -1.54360270e-04
      -8.96253041e-05 -1.62897981e-04 -1.38919117e-04 -4.00224999e-05
      5.90622403e-06 -4.02108271e-05 -1.01846221e-04 -1.05226143e-04
      -1.16451811e-04 -7.40773539e-05 -4.35842812e-05 8.92473508e-06
      8.26734504e-06 4.15565682e-06 3.44033310e-06 4.43960880e-06
      3.91631193e-06 2.47466073e-06 2.60042589e-06 5.68376799e-06
      7.20887965e-06 7.02411626e-06 1.90362753e-05 3.39355211e-05
      2.34382260e-05 1.41013070e-05 7.63004937e-06 6.63804076e-06
      9.51832044e-06 1.33762851e-05 2.83710942e-05 3.41864143e-05
      4.01322141e-05 4.35494694e-05 2.89268155e-05 1.82196472e-05
      6.13341717e-06 3.38949030e-06 1.67565861e-06 1.12326904e-06
      6.13663417e-07 2.78949642e-06 8.00470571e-06 1.75366552e-06
      -2.49200434e-06 -2.30400383e-06 -5.40032852e-06 -6.55834228e-05
      -8.36057225e-05 -9.06305140e-05 -5.53968821e-05 -1.34180475e-04
      -1.05887251e-04 -2.88902411e-05 5.72931549e-06 -2.05320212e-05
      -4.50095067e-05 -4.33018431e-05 -5.90791533e-05 -5.73862562e-05
      -3.52250863e-05 7.94878088e-06 7.84731401e-06 6.15555791e-06
      5.32499871e-06 6.53279676e-06 5.36808466e-06 2.85535157e-06
      2.12421673e-06 4.77017375e-06 7.58683927e-06 8.00893031e-06
      2.05588713e-05 3.51133422e-05 2.26551638e-05 1.26372815e-05
      7.59604063e-06 8.03095918e-06 1.16979700e-05 1.46958000e-05
      2.72325306e-05 3.18807033e-05 3.55300908e-05 3.84216692e-05
      2.68551976e-05 1.67188609e-05 6.69516430e-06 3.04405694e-06
      5.18816535e-07 8.85563225e-07 -1.79318420e-07 4.43366332e-07
      3.06167090e-06 1.25947156e-06 -2.28026835e-07 -4.38737970e-06
      -3.38504606e-06 -4.92369290e-05 -6.14704040e-05 -5.43038077e-05
      -2.06541208e-05 -5.82923021e-05 -5.73318102e-05 3.21617654e-06
      6.18084323e-06 -2.21803039e-05 -4.34480426e-05 -2.69847387e-05
      -3.62272403e-05 -4.27969971e-05 -2.58352484e-05 4.88768319e-06
      7.35618414e-06 6.89438775e-06 6.91246078e-06 7.73994634e-06
      6.77958951e-06 4.60811725e-06 2.99094427e-06 4.10732900e-06
      6.37364838e-06 7.98856945e-06 2.19289850e-05 3.67288812e-05
      2.22289382e-05 1.06646694e-05 7.82129609e-06 8.93861397e-06
      1.22094852e-05 1.56175356e-05 2.63150814e-05 3.01079162e-05
      3.16556179e-05 3.36584817e-05 2.48608139e-05 1.57034665e-05
      6.82869177e-06 2.73689443e-06 1.04097182e-06 3.51090364e-07
      -2.02210401e-07 -1.21502879e-07 1.58148464e-06 1.18131607e-06
      9.89118803e-07 -1.99429621e-07 -3.83454653e-06 -1.24398312e-05
      -4.86272402e-05 -3.50427508e-05 -7.80851224e-06 -4.02407495e-05
      -3.94388589e-05 3.25839187e-06 5.83805013e-06 -2.91206452e-05
      -4.29696520e-05 -3.31210977e-05 -2.42962287e-05 -3.61451712e-05
      -1.05275763e-06 2.45607089e-06 6.41607357e-06 6.22008884e-06
      6.73884369e-06 7.19216087e-06 5.91503158e-06 3.75896047e-06
      3.47753053e-06 4.50380276e-06 6.36328423e-06 8.06530807e-06
      2.23884144e-05 3.72971481e-05 2.15539985e-05 9.64002902e-06
      7.33311754e-06 1.05451900e-05 1.27857502e-05 1.62591150e-05
      2.62905742e-05 2.82518358e-05 2.97785355e-05 3.06838592e-05
      2.37578533e-05 1.61110820e-05 7.56265035e-06 3.43037004e-06
      1.57520503e-06 5.16818886e-07 -2.74165302e-07 1.12649154e-07
      1.20974119e-06 9.98572887e-07 -2.05705805e-06 -6.86521446e-07
      -3.63182266e-06 -2.28885074e-06 -9.08626589e-06 -5.80105916e-06
      -5.71909914e-06 -4.07114458e-05 -2.87069943e-05 2.76395122e-06
      8.79957679e-06 -2.45439587e-05 -4.01868456e-05 -3.37380297e-05
      6.06670346e-06 -4.23109071e-07 2.94686311e-06 4.68948883e-06
      5.12836550e-06 5.28439250e-06 5.35182744e-06 5.47928539e-06
      4.11591873e-06 2.62395997e-06 3.15528587e-06 4.91314267e-06
      8.29654346e-06 9.10782546e-06 2.32077273e-05 3.84081577e-05
      2.03259169e-05 8.20002606e-06 8.13688894e-06 1.40927777e-05
      1.80204097e-05 1.95054126e-05 2.54481874e-05 2.71064982e-05
      2.67818705e-05 2.76278806e-05 2.17911202e-05 1.50300657e-05
      8.38279084e-06 5.03819138e-06 2.03912714e-06 1.64447454e-06
      7.13053851e-07 -1.06188072e-08 8.97690597e-07 1.64975563e-06
      -4.17046749e-07 -4.62055652e-07 3.16023204e-07 -3.68560632e-06
      -5.79734478e-06 -2.01937314e-06 -1.16001297e-06 -2.71641347e-05
      -2.60626093e-05 5.62361083e-06 1.04677738e-05 -1.65311794e-05
      -4.12048503e-05 -3.28764181e-05 8.68493044e-06 9.71192367e-06
      6.77307798e-06 1.82213955e-06 5.14698058e-06 5.57580915e-06
      5.34622586e-06 4.95682707e-06 2.89402374e-06 2.10066310e-06
      3.47377659e-06 6.82380050e-06 9.99253371e-06 1.07674050e-05
      2.43901613e-05 3.83393490e-05 1.91842664e-05 6.12675240e-06
      8.16721149e-06 1.66423342e-05 2.55931463e-05 2.46637519e-05
      2.67640080e-05 2.50084613e-05 2.38035282e-05 2.49050718e-05
      2.01486491e-05 1.26747118e-05 8.83085431e-06 6.09244307e-06
      3.37953543e-06 2.95012342e-06 1.24438748e-06 -2.76829951e-07
      -1.87294461e-07 1.62263825e-06 1.36183769e-06 1.18513356e-06
      -1.33910669e-06 -7.43510284e-08 -1.37840618e-06 -1.11336033e-06
      -8.75709702e-07 -8.07565812e-06 -8.22568381e-06 6.27622421e-06
      1.14043669e-05 -7.95631968e-06 -3.65880951e-05 -2.79323867e-05
      7.41726581e-06 9.05082743e-06 8.57485247e-06 6.33193940e-06
      6.65908510e-06 6.47621073e-06 5.89467936e-06 5.69619533e-06
      4.39668247e-06 1.68224437e-06 3.14534873e-06 9.41488634e-06
      1.25685820e-05 1.31897086e-05 2.62305421e-05 3.83324950e-05
      1.84339497e-05 4.41086513e-06 6.66447932e-06 2.03018644e-05
      3.03311681e-05 3.50296759e-05 3.20389336e-05 2.58161926e-05
      2.20318616e-05 2.27252185e-05 1.88874037e-05 1.47238825e-05
      9.27588280e-06 7.70543829e-06 4.77058302e-06 4.19193657e-06
      3.54503663e-06 3.73086959e-06 1.79342055e-06 4.20028391e-06
      4.88069691e-06 2.08395045e-06 2.11853603e-06 9.15606790e-07
      -6.89598437e-07 5.23407550e-07 9.29723058e-07 9.16568979e-07
      3.34683682e-06 7.21127481e-06 1.21534376e-05 -6.02323453e-08
      -2.86302165e-05 -2.11227398e-05 7.37059372e-06 8.72678902e-06
      8.73691079e-06 8.91159652e-06 8.77986804e-06 9.30316492e-06
      1.00063280e-05 8.15861767e-06 5.87948261e-06 2.37046606e-06
      3.55801581e-06 9.33250885e-06 1.51232589e-05 1.48207764e-05
      2.67507348e-05 3.90552377e-05 1.80118932e-05 3.98525617e-06
      6.72487931e-06 2.18637470e-05 3.63209656e-05 4.28257226e-05
      3.78636105e-05 2.79963260e-05 2.24626456e-05 2.33441751e-05
      1.86531906e-05 1.46786679e-05 1.22186357e-05 9.37820278e-06
      8.50791366e-06 7.42551674e-06 6.95347489e-06 6.69891597e-06
      4.71414978e-06 6.90032402e-06 7.38298695e-06 4.30594764e-06
      4.08620372e-06 3.45061562e-06 2.24987957e-06 3.09985990e-06
      4.50716243e-06 5.24306097e-06 6.67524182e-06 9.44152362e-06
      1.19055403e-05 6.83244662e-06 -1.97721256e-05 2.69030284e-06
      6.17591786e-06 7.60903140e-06 8.10954316e-06 9.47269382e-06
      1.13573997e-05 1.33651893e-05 1.44392188e-05 1.24429471e-05
      8.75654041e-06 4.56073258e-06 3.94581866e-06 9.07636513e-06
      1.73756271e-05 1.61379812e-05 2.69019856e-05 3.93333394e-05
      1.76718368e-05 4.07947118e-06 6.42141913e-06 2.33947176e-05
      4.10267749e-05 5.17086009e-05 4.64365730e-05 3.27497728e-05
      2.51174606e-05 2.60053857e-05 2.16456156e-05 1.76922385e-05
      1.40018992e-05 1.23761820e-05 1.18215467e-05 1.13962951e-05
      1.11879217e-05 1.09329685e-05 8.96405163e-06 1.10293713e-05
      1.09068096e-05 7.39396728e-06 6.05083369e-06 6.20028732e-06
      5.65521941e-06 6.82471364e-06 8.12298822e-06 9.42143652e-06
      1.07024662e-05 1.25287479e-05 1.27076892e-05 7.13551253e-06
      -2.79318601e-06 4.14397300e-06 5.38310087e-06 5.74058822e-06
      6.29849546e-06 7.10409722e-06 1.05052350e-05 1.45938193e-05
      1.82449039e-05 1.72131877e-05 1.26585846e-05 6.31349803e-06
      4.81254619e-06 9.38669746e-06 1.67123817e-05 1.70220865e-05
      2.71463432e-05 3.93237606e-05 1.79792478e-05 5.47708987e-06
      6.33565924e-06 2.29326542e-05 4.11867586e-05 5.64601251e-05
      5.41364825e-05 4.09835375e-05 3.02442986e-05 3.00549655e-05
      2.42356255e-05 1.92532498e-05 1.45105923e-05 1.38477881e-05
      1.35859136e-05 1.35868149e-05 1.43982688e-05 1.42080780e-05
      1.28455640e-05 1.44140604e-05 1.37014686e-05 9.91494835e-06
      8.60245291e-06 9.10778999e-06 1.00003545e-05 1.07175720e-05
      1.12867110e-05 1.19018796e-05 1.38515934e-05 1.48869303e-05
      1.02021531e-05 6.09311019e-06 2.30736055e-06 3.60538138e-06
      4.09820768e-06 4.89723152e-06 5.35661047e-06 5.67374082e-06
      9.26257235e-06 1.58122639e-05 2.16371136e-05 2.13571238e-05
      1.64980156e-05 9.13894200e-06 5.25044470e-06 8.66510709e-06
      1.54508980e-05 1.58707826e-05 2.55690502e-05 3.62609717e-05
      1.80254719e-05 5.48289790e-06 6.26902556e-06 2.23132520e-05
      3.94743511e-05 5.60147746e-05 5.83420187e-05 4.73106775e-05
      3.62299616e-05 3.34544893e-05 2.59681692e-05 1.76466365e-05
      1.31947027e-05 1.30834214e-05 1.31613961e-05 1.43582656e-05
      1.53074398e-05 1.60703985e-05 1.54611425e-05 1.64001212e-05
      1.63296645e-05 1.25408569e-05 1.18800435e-05 1.29203409e-05
      1.41094752e-05 1.51348213e-05 1.59832562e-05 1.61567023e-05
      1.67168437e-05 1.76147150e-05 9.01834574e-06 6.49594040e-06
      4.30136788e-06 3.49620632e-06 3.21206289e-06 2.86897239e-06
      2.99826593e-06 3.40845281e-06 8.64823869e-06 1.59891206e-05
      2.29895195e-05 2.35367206e-05 1.92839689e-05 1.18288917e-05
      7.62257150e-06 9.13223994e-06 1.37513780e-05 1.33480244e-05
      2.13191579e-05 3.14202807e-05 1.71610700e-05 6.56515067e-06
      8.91682976e-06 2.29244524e-05 4.00602148e-05 5.43312672e-05
      5.89712254e-05 4.96440589e-05 4.04712409e-05 3.66827880e-05
      2.77215750e-05 1.93418382e-05 1.24381486e-05 1.23544087e-05
      1.28881811e-05 1.36956514e-05 1.53083056e-05 1.66227874e-05
      1.65577367e-05 1.70391704e-05 1.49449897e-05 1.23258624e-05
      1.22552119e-05 1.47259962e-05 1.63320383e-05 1.68920724e-05
      1.71519332e-05 1.81695541e-05 1.75930563e-05 1.85351091e-05
      1.09261737e-05 7.90084596e-06 5.00437181e-06 4.99663065e-06
      3.78532854e-06 3.28032115e-06 2.83571421e-06 2.45342699e-06
      8.98880990e-06 1.62727738e-05 2.25045933e-05 2.26875654e-05
      1.98952930e-05 1.47502533e-05 9.37495861e-06 9.44098610e-06
      1.05866966e-05 1.03459079e-05 1.72897599e-05 2.77768959e-05
      1.98229518e-05 1.31313545e-05 1.44139931e-05 2.42462156e-05
      4.07689586e-05 5.33615894e-05 5.97673534e-05 4.87378675e-05
      4.12201480e-05 3.60488411e-05 2.81755329e-05 2.00139275e-05
      1.25962561e-05 1.17719528e-05 1.21759995e-05 1.35492501e-05
      1.38489268e-05 1.49392054e-05 1.55538510e-05 1.54499703e-05
      1.29182354e-05 1.19173183e-05 1.28013726e-05 1.45453196e-05
      1.59012234e-05 1.65496658e-05 1.73073113e-05 1.82636923e-05
      1.82018484e-05 1.85167028e-05 1.18987873e-05 8.59334614e-06
      5.90304398e-06 5.53520931e-06 4.99742282e-06 3.44247360e-06
      2.32793241e-06 2.24907217e-06 7.35005824e-06 1.49017278e-05
      1.93201486e-05 2.04008757e-05 1.84168166e-05 1.45227259e-05
      9.44682688e-06 9.15428609e-06 8.22521633e-06 7.68834161e-06
      1.38196801e-05 2.30221613e-05 2.04093249e-05 1.78867904e-05
      1.95759130e-05 2.54153892e-05 3.68366818e-05 4.99658599e-05
      5.78699364e-05 4.65924313e-05 3.81961436e-05 3.20798281e-05
      2.47253502e-05 1.84269084e-05 1.24158742e-05 1.15315725e-05
      1.15100784e-05 1.31769175e-05 1.33917692e-05 1.39814292e-05
      1.42239469e-05 1.42876042e-05 1.39159793e-05 1.34892753e-05
      1.27761932e-05 1.38430614e-05 1.61290518e-05 1.65408237e-05
      1.74170982e-05 1.83868251e-05 1.93038741e-05 1.99128972e-05
      1.20295908e-05 9.94246784e-06 8.20008518e-06 6.15243107e-06
      4.01606076e-06 4.10117036e-06 2.88977412e-06 3.71649799e-06
      9.15102282e-06 1.38324749e-05 1.67021954e-05 1.66861664e-05
      1.51412487e-05 1.27939720e-05 9.96795461e-06 7.38850531e-06
      6.76540458e-06 6.33487116e-06 1.13844817e-05 2.08474412e-05
      2.32381990e-05 2.52273931e-05 2.52686987e-05 2.79920314e-05
      3.69407353e-05 4.45009136e-05 5.19227033e-05 4.32315792e-05
      3.28509086e-05 2.48470315e-05 2.15642449e-05 1.67630988e-05
      1.14330242e-05 1.05738900e-05 1.12785146e-05 1.05644431e-05
      1.16270858e-05 1.37051156e-05 1.40293623e-05 1.73862991e-05
      1.65683650e-05 1.50712403e-05 1.24983972e-05 1.26130317e-05
      1.40090251e-05 1.43197030e-05 1.65645342e-05 1.89855255e-05
      1.88343292e-05 2.02389474e-05 1.27128706e-05 1.03288612e-05
      9.21366700e-06 6.58180579e-06 4.52572340e-06 4.45114165e-06
      3.02526837e-06 3.88841454e-06 8.10442907e-06 1.13765464e-05
      1.39273243e-05 1.39112954e-05 1.28896745e-05 1.10656947e-05
      9.44465683e-06 7.91180173e-06 6.97334099e-06 6.13274324e-06
      9.11543066e-06 1.84701839e-05 2.11330498e-05 2.45136835e-05
      2.69811608e-05 3.08650633e-05 3.62001956e-05 4.20989236e-05
      4.77326757e-05 3.94221606e-05 3.02711742e-05 2.07181438e-05
      1.76101421e-05 1.32607620e-05 1.15567045e-05 1.04480832e-05
      1.00778325e-05 1.02877721e-05 1.16163756e-05 1.38620453e-05
      1.42171975e-05 1.84350556e-05 2.01344010e-05 1.72089676e-05
      1.37896377e-05 1.35159235e-05 1.41439969e-05 1.46290540e-05
      1.64022804e-05 1.83788343e-05 2.05387860e-05 2.19434041e-05</_></support_vectors>
  <uncompressed_sv_total>13</uncompressed_sv_total>
  <uncompressed_support_vectors>
    <_>
      0. 0. 0. 0. 0. 0. 0. 0. 0. 0. 0. 0. 0. 0. 0. 0. 0. 0. 0. 0. 0. 0.
      0. 0. 0. 0. 0. 0. 0. 0. 0. 0. 0. 0. 0. 0. 0. 0. 0. 0. 0. 0. 0. 0.
      0. 0. 0. 0. 0. 0. 0. 0. 0. 0. 0. 0. 0. 0. 0. 0. 0. 0. 0. 0. 0. 0.
      0. 0. 0. 0. 0. 0. 0. 0. 0. 0. 0. 0. 0. 0. 0. 0. 0. 0. 0. 0. 0. 0.
      0. 1. 1. 0. 0. 0. 0. 0. 0. 0. 0. 0. 0. 0. 0. 0. 0. 0. 0. 0. 0. 0.
      0. 0. 0. 0. 0. 0. 0. 0. 0. 0. 0. 0. 0. 0. 0. 0. 0. 0. 0. 0. 0. 0.
      0. 0. 0. 0. 0. 0. 0. 0. 1. 1. 1. 1. 0. 0. 0. 0. 0. 0. 0. 0. 0. 0.
      0. 0. 1. 0. 0. 0. 0. 1. 0. 0. 0. 0. 0. 0. 0. 0. 0. 0. 0. 0. 0. 0.
      0. 0. 0. 0. 0. 0. 0. 0. 0. 0. 0. 0. 1. 1. 1. 1. 1. 1. 1. 0. 0. 0.
      0. 0. 1. 1. 1. 1. 1. 1. 1. 1. 0. 0. 1. 0. 0. 0. 0. 0. 0. 0. 0. 0.
      0. 0. 0. 0. 0. 0. 0. 0. 0. 0. 0. 0. 0. 0. 0. 0. 0. 0. 1. 1. 1. 1.
      1. 1. 1. 0. 0. 0. 0. 0. 1. 1. 1. 1. 1. 1. 1. 1. 0. 0. 1. 0. 0. 0.
      0. 0. 0. 0. 0. 0. 0. 0. 0. 0. 0. 0. 0. 0. 0. 0. 0. 0. 0. 0. 0. 0.
      0. 1. 1. 1. 1. 1. 1. 1. 1. 1. 0. 0. 0. 0. 1. 1. 1. 1. 1. 1. 1. 1.
      1. 0. 0. 0. 0. 0. 0. 0. 0. 0. 0. 0. 0. 0. 0. 0. 0. 0. 0. 0. 0. 0.
      0. 0. 0. 0. 0. 0. 0. 1. 1. 1. 1. 1. 1. 1. 1. 1. 1. 0. 0. 0. 1. 1.
      1. 1. 1. 1. 1. 1. 1. 1. 0. 0. 0. 0. 0. 0. 0. 0. 0. 0. 0. 0. 0. 0.
      0. 0. 0. 0. 0. 0. 1. 0. 0. 0. 0. 0. 0. 1. 1. 1. 1. 1. 1. 1. 1. 1.
      1. 0. 0. 0. 1. 1. 1. 1. 1. 1. 1. 1. 1. 1. 1. 1. 0. 0. 0. 0. 0. 0.
      0. 0. 0. 0. 0. 0. 0. 0. 0. 0. 0. 0. 0. 0. 0. 0. 0. 0. 0. 1. 1. 1.
      1. 1. 1. 2. 2. 1. 1. 1. 1. 0. 2. 2. 1. 1. 1. 1. 1. 1. 1. 1. 1. 1.
      1. 1. 0. 0. 0. 0. 0. 0. 0. 0. 0. 0. 0. 0. 0. 0. 0. 0. 0. 0. 0. 0.
      0. 1. 1. 1. 1. 1. 1. 2. 2. 4. 3. 2. 1. 1. 1. 1. 2. 2. 2. 2. 1. 1.
      1. 1. 1. 1. 1. 1. 1. 1. 1. 0. 0. 0. 0. 0. 0. 0. 0. 0. 0. 0. 0. 0.
      0. 0. 0. 0. 0. 1. 1. 1. 1. 1. 1. 1. 1. 2. 3. 7. 5. 4. 2. 1. 1. 1.
      2. 2. 2. 3. 4. 4. 2. 2. 1. 1. 1. 1. 1. 1. 0. 0. 0. 0. 0. 0. 0. 0.
      0. 0. 0. 0. 0. 0. 0. 0. 0. 0. 0. 1. 1. 1. 1. 1. 1. 1. 3. 3. 5. 8.
      14. 9. 4. 2. 1. 1. 2. 1. 3. 5. 10. 6. 4. 2. 1. 1. 1. 1. 1. 1. 0.
      0. 0. 0. 0. 0. 0. 0. 0. 0. 0. 0. 0. 0. 0. 0. 0. 0. 0. 0. 1. 1. 1.
      1. 1. 1. 2. 4. 6. 18. 100. 56. 5. 3. 1. 1. 2. 2. 6. 6. 66. 10. 6.
      3. 2. 1. 1. 1. 1. 1. 0. 0. 0. 0. 0. 0. 0. 0. 0. 0. 0. 0. 0. 0. 0.
      0. 0. 0. 1. 1. 1. 1. 1. 1. 1. 2. 3. 7. 7. 108. 140. 115. 6. 4. 2.
      1. 2. 3. 6. 38. 149. 90. 6. 7. 2. 1. 1. 1. 1. 1. 0. 0. 0. 0. 0. 0.
      0. 0. 0. 0. 0. 0. 0. 0. 0. 0. 0. 0. 1. 1. 1. 1. 1. 1. 2. 2. 4. 8.
      16. 194. 188. 155. 6. 6. 2. 1. 2. 4. 7. 96. 177. 192. 18. 7. 3. 2.
      1. 1. 1. 1. 1. 0. 0. 0. 0. 0. 0. 0. 0. 0. 0. 0. 0. 0. 0. 0. 0. 1.
      1. 1. 1. 1. 1. 1. 2. 2. 5. 10. 26. 208. 207. 176. 10. 7. 3. 1. 3.
      6. 9. 117. 208. 216. 28. 8. 4. 2. 1. 1. 1. 1. 1. 1. 1. 0. 0. 0. 0.
      0. 0. 0. 0. 0. 0. 0. 0. 0. 0. 1. 1. 1. 1. 1. 1. 1. 2. 2. 6. 9. 27.
      215. 208. 188. 11. 7. 3. 2. 3. 8. 10. 120. 215. 220. 29. 9. 4. 2.
      1. 1. 1. 1. 1. 1. 1. 1. 0. 0. 0. 0. 0. 0. 0. 0. 0. 0. 0. 0. 0. 1.
      1. 1. 1. 1. 1. 2. 2. 3. 6. 11. 27. 217. 216. 196. 13. 8. 4. 2. 3.
      7. 11. 122. 219. 222. 32. 10. 5. 2. 2. 1. 1. 1. 1. 1. 1. 1. 0. 0.
      0. 0. 0. 0. 0. 0. 0. 0. 0. 0. 0. 1. 1. 1. 1. 1. 1. 2. 2. 4. 6. 11.
      27. 219. 222. 204. 16. 9. 4. 2. 4. 7. 10. 120. 220. 226. 42. 11.
      5. 3. 2. 2. 1. 1. 1. 1. 1. 1. 0. 0. 0. 0. 0. 0. 0. 0. 0. 0. 0. 0.
      1. 1. 1. 1. 1. 1. 1. 2. 2. 4. 6. 12. 28. 221. 225. 209. 17. 10. 4.
      3. 5. 7. 11. 118. 221. 225. 66. 11. 5. 3. 3. 1. 1. 1. 1. 1. 1. 1.
      0. 0. 0. 0. 0. 0. 0. 0. 0. 0. 0. 0. 1. 1. 1. 1. 1. 1. 1. 2. 3. 4.
      7. 12. 26. 223. 227. 214. 19. 13. 7. 5. 6. 9. 11. 117. 225. 230.
      91. 11. 6. 3. 3. 2. 1. 1. 1. 1. 1. 0. 0. 0. 0. 0. 0. 0. 0. 0. 0.
      0. 0. 0. 1. 1. 1. 1. 1. 1. 2. 2. 3. 4. 7. 14. 25. 225. 229. 217.
      19. 13. 11. 10. 5. 9. 11. 117. 226. 227. 117. 13. 6. 4. 2. 1. 1.
      1. 1. 1. 1. 0. 0. 0. 0. 0. 0. 0. 0. 0. 0. 0. 0. 0. 1. 1. 1. 1. 1.
      1. 2. 2. 2. 4. 6. 12. 23. 227. 229. 219. 20. 12. 7. 5. 4. 9. 11.
      116. 226. 224. 134. 15. 7. 3. 3. 1. 1. 1. 1. 1. 0. 0. 0. 0. 0. 0.
      0. 0. 0. 0. 0. 0. 0. 0. 1. 1. 1. 1. 1. 1. 2. 2. 2. 4. 5. 11. 21.
      227. 230. 221. 20. 12. 5. 4. 6. 7. 11. 117. 227. 225. 147. 16. 7.
      4. 3. 2. 1. 1. 1. 1. 1. 0. 0. 0. 0. 0. 0. 0. 0. 0. 0. 0. 1. 0. 1.
      1. 1. 1. 1. 1. 1. 2. 3. 4. 6. 12. 19. 226. 230. 221. 21. 12. 5. 4.
      4. 7. 11. 115. 229. 226. 151. 16. 7. 4. 3. 2. 1. 1. 1. 1. 1. 0. 0.
      0. 0. 0. 0. 0. 0. 0. 0. 0. 0. 0. 1. 1. 1. 1. 1. 2. 1. 2. 3. 4. 6.
      10. 14. 226. 231. 224. 23. 12. 5. 4. 4. 7. 11. 111. 232. 227. 156.
      16. 7. 3. 3. 2. 1. 1. 1. 1. 0. 0. 0. 0. 0. 0. 0. 0. 0. 0. 0. 0. 0.
      0. 1. 1. 1. 1. 1. 2. 2. 2. 3. 4. 6. 10. 12. 225. 231. 225. 25. 12.
      5. 4. 4. 7. 10. 108. 232. 227. 158. 16. 7. 4. 2. 2. 1. 1. 1. 1. 1.
      0. 0. 0. 0. 0. 0. 0. 0. 0. 0. 0. 0. 0. 1. 1. 1. 1. 1. 2. 2. 2. 3.
      4. 6. 11. 12. 225. 230. 225. 27. 12. 6. 3. 4. 7. 10. 106. 232.
      225. 159. 16. 7. 4. 3. 2. 1. 1. 1. 1. 1. 0. 0. 0. 0. 0. 0. 0. 0.
      0. 0. 0. 0. 1. 1. 1. 1. 1. 1. 1. 1. 2. 3. 4. 6. 11. 12. 222. 230.
      225. 32. 12. 5. 3. 3. 6. 10. 98. 231. 224. 160. 14. 8. 4. 2. 1. 1.
      1. 1. 1. 1. 0. 0. 0. 0. 0. 0. 0. 0. 0. 0. 0. 0. 1. 1. 1. 1. 1. 1.
      1. 1. 2. 3. 3. 6. 10. 12. 211. 229. 226. 41. 11. 5. 3. 3. 6. 9.
      85. 229. 225. 161. 15. 7. 4. 2. 2. 1. 1. 1. 1. 1. 0. 0. 0. 0. 0.
      0. 0. 0. 0. 0. 0. 0. 1. 1. 1. 1. 1. 1. 1. 1. 2. 3. 3. 6. 10. 11.
      208. 229. 227. 44. 11. 5. 3. 3. 5. 10. 63. 228. 224. 163. 16. 7.
      4. 2. 2. 1. 1. 1. 1. 0. 0. 0. 0. 0. 0. 0. 0. 0. 0. 0. 0. 0. 1. 1.
      1. 1. 1. 1. 1. 1. 2. 2. 3. 5. 9. 11. 202. 227. 228. 45. 11. 5. 3.
      3. 5. 9. 47. 227. 224. 161. 14. 7. 4. 2. 1. 1. 1. 0. 0. 0. 0. 0.
      0. 0. 0. 0. 0. 0. 0. 0. 0. 0. 1. 1. 1. 1. 1. 1. 1. 1. 2. 2. 3. 5.
      9. 10. 195. 223. 225. 45. 11. 5. 3. 3. 4. 9. 33. 223. 219. 161.
      14. 6. 4. 2. 1. 1. 1. 1. 0. 0. 0. 0. 0. 0. 0. 0. 0. 0. 0. 0. 0. 0.
      0. 1. 1. 1. 1. 1. 1. 1. 2. 2. 3. 4. 8. 10. 188. 216. 218. 42. 10.
      5. 3. 3. 4. 8. 21. 212. 212. 157. 13. 6. 3. 2. 1. 1. 1. 1. 0. 0.
      0. 0. 0. 0. 0. 0. 0. 0. 0. 0. 0. 0. 0. 0. 1. 1. 1. 1. 1. 1. 2. 2.
      3. 3. 8. 9. 174. 202. 198. 33. 9. 4. 3. 2. 3. 7. 16. 194. 199.
      145. 11. 5. 2. 2. 1. 1. 1. 1. 0. 0. 0. 0. 0. 0. 0. 0. 0. 0. 0. 0.
      0. 0. 0. 0. 1. 1. 1. 1. 1. 1. 1. 1. 2. 3. 7. 9. 124. 164. 162. 18.
      8. 4. 3. 2. 2. 6. 11. 162. 159. 107. 8. 4. 2. 2. 1. 1. 1. 1. 0. 0.
      0. 0. 0. 0. 0. 0. 0. 0. 0. 0. 0. 0. 0. 0. 1. 1. 1. 1. 1. 1. 1. 1.
      2. 2. 4. 9. 34. 124. 96. 9. 6. 3. 2. 2. 2. 5. 8. 106. 139. 23. 9.
      3. 2. 1. 1. 1. 1. 0. 0. 0. 0. 0. 0. 0. 0. 0. 0. 0. 0. 0. 0. 0. 0.
      0. 1. 1. 1. 1. 1. 1. 1. 1. 2. 2. 3. 6. 9. 26. 16. 7. 4. 2. 2. 1.
      2. 2. 6. 18. 30. 8. 5. 2. 2. 1. 1. 1. 1. 1. 1. 0. 0. 0. 0. 0. 0.
      0. 0. 0. 0. 0. 0. 0. 0. 0. 0. 0. 0. 1. 1. 1. 1. 1. 1. 2. 3. 4. 7.
      7. 8. 3. 3. 2. 1. 1. 2. 2. 4. 7. 8. 6. 2. 1. 1. 1. 1. 1. 1. 0. 0.
      0. 0. 0. 0. 0. 0. 0. 0. 0. 0. 0. 0. 0. 0. 0. 0. 0. 0. 1. 1. 1. 1.
      1. 1. 2. 2. 2. 4. 5. 3. 2. 2. 1. 1. 1. 1. 2. 2. 4. 5. 3. 2. 1. 1.
      2. 1. 1. 1. 0. 0. 0. 0. 0. 0. 0. 0. 0. 0. 0. 0. 0. 0. 0. 0. 0. 0.
      0. 0. 1. 1. 1. 1. 1. 1. 1. 1. 2. 2. 3. 2. 1. 1. 1. 1. 1. 1. 1. 1.
      1. 1. 1. 1. 1. 1. 1. 1. 1. 1. 0. 0. 0. 0. 0. 0. 0. 0. 0. 0. 0. 0.
      0. 0. 0. 0. 0. 0. 0. 1. 1. 1. 1. 1. 1. 1. 1. 1. 2. 2. 1. 1. 1. 1.
      1. 1. 1. 1. 1. 1. 1. 0. 1. 1. 1. 1. 1. 1. 1. 0. 0. 0. 0. 0. 0. 0.
      0. 0. 0. 0. 0. 0. 0. 0. 0. 0. 0. 0. 0. 0. 0. 1. 1. 1. 1. 1. 1. 1.
      1. 1. 1. 1. 1. 1. 1. 1. 0. 1. 1. 1. 1. 1. 1. 1. 1. 1. 1. 1. 1. 0.
      0. 0. 0. 0. 0. 0. 0. 0. 0. 0. 0. 0. 0. 0. 0. 0. 0. 0. 0. 0. 0. 0.
      0. 1. 1. 1. 1. 1. 1. 1. 1. 1. 1. 1. 1. 1. 0. 1. 1. 1. 1. 1. 1. 1.
      1. 1. 1. 1. 0. 0. 0. 0. 0. 0. 0. 0. 0. 0. 0. 0. 0. 0. 0. 0. 0. 0.
      0. 0. 0. 0. 0. 0. 0. 1. 1. 1. 1. 1. 1. 1. 1. 1. 1. 1. 1. 0. 1. 1.
      1. 1. 1. 1. 1. 1. 1. 1. 1. 1. 0. 0. 0. 0. 0. 0. 0. 0. 0. 0. 0. 0.
      0. 0. 0. 0. 0. 0. 0. 0. 0. 0. 0. 0. 0. 1. 1. 1. 1. 1. 1. 1. 1. 1.
      1. 1. 1. 0. 0. 0. 0. 0. 1. 1. 1. 1. 0. 1. 1. 1. 0. 0. 0. 0. 0. 0.
      0. 0. 0. 0. 0. 0. 0. 0. 0. 0. 0. 0. 0. 0. 0. 0. 0. 0. 0. 1. 1. 1.
      1. 1. 1. 1. 1. 1. 1. 1. 1. 0. 0. 0. 0. 0. 1. 1. 1. 1. 0. 0. 0. 0.
      0. 0. 0. 0. 0. 0. 0. 0. 0. 0. 0. 0. 0. 0. 0. 0. 0. 0. 0. 0. 0. 0.
      0. 0. 0. 0. 0. 0. 0. 1. 1. 1. 0. 0. 0. 0. 0. 0. 0. 0. 0. 0. 1. 0.
      0. 0. 0. 0. 0. 0. 0. 0. 0. 0. 0. 0. 0. 0. 0. 0. 0. 0. 0. 0. 0. 0.
      0. 0. 0. 0. 0. 0. 0. 0. 0. 0. 0. 0. 0. 0. 0. 0. 0. 0. 0. 0. 0. 0.
      0. 0. 0. 0. 0. 0. 0. 0. 0. 0. 0. 0. 0. 0. 0. 0. 0. 0. 0. 0. 0. 0.
      0. 0. 0. 0. 0. 0. 0. 0. 0. 0. 0. 0. 0. 0. 0. 0. 0. 0. 0. 0. 0. 0.
      0. 0. 0. 0. 0. 0.</_>
    <_>
      15. 3. 3. 2. 2. 1. 1. 1. 1. 1. 1. 0. 1. 1. 1. 0. 0. 0. 0. 0. 0. 0.
      1. 1. 1. 1. 1. 1. 1. 1. 1. 1. 0. 1. 1. 1. 1. 1. 1. 1. 1. 1. 1. 2.
      2. 2. 3. 5. 29. 25. 14. 4. 4. 3. 2. 1. 1. 1. 1. 1. 1. 1. 1. 0. 1.
      0. 0. 0. 0. 0. 0. 0. 0. 0. 1. 1. 1. 1. 1. 0. 1. 1. 1. 1. 1. 1. 1.
      1. 1. 1. 1. 1. 1. 2. 2. 2. 4. 5. 12. 9. 14. 5. 4. 3. 2. 1. 1. 1.
      1. 0. 1. 1. 1. 1. 1. 0. 0. 0. 0. 0. 0. 0. 0. 1. 1. 1. 1. 1. 1. 1.
      1. 1. 1. 1. 1. 1. 1. 1. 1. 1. 1. 1. 1. 2. 2. 3. 5. 5. 7. 6. 16. 7.
      5. 4. 2. 2. 1. 1. 1. 1. 1. 1. 1. 1. 1. 0. 0. 0. 0. 0. 0. 1. 0. 0.
      1. 0. 0. 0. 0. 1. 1. 1. 1. 1. 1. 1. 1. 1. 1. 1. 1. 1. 1. 2. 3. 3.
      7. 9. 9. 7. 20. 11. 6. 5. 2. 2. 2. 1. 1. 1. 1. 1. 1. 1. 1. 0. 0.
      0. 0. 0. 0. 1. 0. 0. 1. 0. 0. 0. 1. 1. 1. 1. 1. 1. 1. 1. 1. 1. 1.
      1. 1. 1. 2. 2. 3. 4. 8. 61. 60. 7. 58. 28. 11. 5. 3. 2. 2. 1. 1.
      1. 1. 1. 1. 1. 0. 0. 0. 0. 0. 0. 0. 0. 0. 0. 0. 0. 0. 0. 0. 0. 0.
      1. 1. 1. 1. 1. 1. 1. 1. 1. 1. 1. 2. 2. 2. 4. 11. 130. 132. 11. 10.
      49. 11. 6. 4. 2. 2. 1. 1. 1. 1. 1. 1. 1. 0. 0. 0. 0. 0. 0. 0. 0.
      0. 0. 0. 0. 0. 0. 0. 0. 0. 1. 1. 1. 1. 1. 1. 1. 1. 1. 1. 1. 2. 2.
      3. 5. 18. 180. 165. 12. 9. 123. 87. 8. 4. 2. 2. 1. 1. 1. 1. 1. 1.
      1. 1. 0. 0. 0. 0. 0. 0. 0. 0. 0. 0. 0. 0. 0. 1. 0. 0. 1. 1. 1. 1.
      1. 1. 1. 1. 1. 1. 1. 2. 2. 3. 5. 98. 208. 185. 12. 9. 144. 155.
      13. 4. 3. 2. 1. 1. 1. 1. 1. 1. 1. 0. 0. 0. 0. 0. 0. 0. 0. 0. 0. 0.
      0. 0. 0. 0. 0. 0. 1. 1. 1. 1. 1. 1. 1. 1. 1. 1. 1. 2. 2. 3. 6.
      141. 211. 187. 14. 10. 180. 170. 9. 5. 3. 2. 2. 1. 1. 1. 1. 1. 1.
      1. 0. 0. 0. 0. 0. 0. 0. 0. 0. 0. 0. 0. 0. 0. 0. 0. 0. 0. 1. 1. 1.
      1. 1. 1. 1. 1. 1. 2. 2. 4. 7. 152. 223. 192. 16. 11. 205. 201. 15.
      6. 3. 2. 2. 1. 1. 1. 1. 1. 1. 1. 0. 0. 0. 0. 0. 0. 0. 0. 0. 0. 0.
      0. 0. 0. 0. 0. 0. 0. 1. 1. 1. 1. 1. 1. 1. 1. 2. 2. 3. 4. 7. 154.
      232. 201. 17. 11. 212. 215. 26. 5. 3. 2. 2. 1. 1. 1. 1. 1. 1. 1.
      0. 0. 0. 0. 0. 0. 0. 0. 0. 0. 0. 0. 0. 0. 0. 0. 0. 0. 1. 1. 1. 1.
      1. 1. 1. 1. 2. 2. 3. 5. 8. 154. 234. 203. 14. 11. 215. 223. 29. 6.
      4. 2. 2. 1. 1. 1. 1. 1. 1. 1. 0. 0. 0. 0. 0. 0. 0. 0. 0. 1. 0. 0.
      0. 0. 0. 0. 0. 0. 1. 1. 1. 1. 1. 1. 1. 1. 2. 2. 3. 4. 8. 154. 235.
      206. 14. 11. 216. 229. 34. 7. 4. 2. 2. 1. 1. 1. 1. 1. 1. 1. 0. 0.
      0. 0. 0. 0. 0. 0. 0. 0. 1. 0. 0. 0. 0. 0. 0. 0. 0. 1. 1. 1. 1. 1.
      1. 1. 2. 2. 3. 4. 9. 149. 235. 211. 15. 11. 214. 231. 39. 7. 5. 3.
      2. 1. 1. 1. 1. 1. 1. 1. 0. 0. 0. 0. 0. 0. 0. 0. 0. 0. 0. 0. 0. 0.
      0. 0. 0. 0. 0. 0. 1. 1. 1. 1. 1. 1. 2. 2. 3. 5. 9. 145. 236. 213.
      13. 11. 214. 231. 42. 7. 4. 3. 2. 1. 1. 1. 1. 1. 1. 0. 0. 0. 0. 0.
      0. 0. 0. 0. 0. 0. 0. 0. 0. 0. 0. 0. 0. 0. 0. 0. 1. 1. 1. 1. 1. 1.
      2. 2. 3. 5. 9. 142. 237. 216. 12. 11. 214. 232. 51. 7. 4. 3. 2. 1.
      1. 1. 1. 1. 1. 0. 0. 0. 0. 0. 0. 0. 0. 0. 0. 0. 0. 0. 0. 0. 0. 0.
      0. 0. 0. 1. 1. 1. 1. 1. 1. 1. 2. 2. 3. 5. 9. 135. 237. 218. 12.
      14. 214. 233. 55. 8. 4. 3. 2. 1. 1. 1. 1. 1. 1. 0. 0. 0. 0. 0. 0.
      0. 0. 0. 0. 0. 0. 0. 0. 0. 0. 0. 0. 0. 0. 1. 1. 1. 1. 1. 1. 1. 2.
      2. 3. 5. 9. 132. 238. 219. 12. 11. 214. 235. 63. 9. 5. 3. 2. 2. 1.
      1. 1. 0. 1. 1. 0. 0. 0. 1. 0. 0. 0. 0. 0. 0. 0. 0. 0. 0. 0. 0. 0.
      0. 0. 0. 1. 1. 1. 1. 1. 1. 2. 2. 3. 5. 9. 128. 238. 220. 13. 11.
      212. 236. 68. 8. 5. 3. 2. 2. 1. 1. 1. 1. 1. 1. 0. 0. 0. 0. 0. 0.
      0. 0. 0. 0. 0. 0. 0. 0. 0. 0. 0. 0. 0. 0. 1. 1. 1. 1. 1. 1. 2. 2.
      3. 5. 9. 123. 238. 221. 13. 12. 209. 237. 74. 8. 4. 3. 2. 2. 1. 1.
      1. 1. 1. 0. 0. 0. 0. 0. 0. 0. 0. 0. 0. 0. 0. 0. 0. 0. 0. 0. 0. 0.
      0. 0. 1. 1. 1. 1. 1. 1. 2. 2. 3. 5. 9. 119. 238. 223. 14. 16. 207.
      239. 80. 9. 5. 4. 2. 2. 1. 1. 1. 1. 1. 0. 0. 0. 0. 0. 0. 0. 0. 0.
      0. 0. 0. 0. 0. 0. 0. 0. 0. 0. 0. 0. 1. 1. 1. 1. 1. 1. 2. 2. 3. 5.
      9. 117. 238. 224. 15. 44. 202. 240. 89. 9. 7. 3. 2. 2. 1. 1. 1. 1.
      1. 1. 0. 1. 0. 0. 0. 0. 0. 0. 0. 0. 0. 0. 0. 0. 0. 0. 0. 0. 0. 0.
      1. 1. 1. 1. 1. 1. 2. 2. 3. 4. 9. 112. 238. 225. 16. 15. 197. 241.
      100. 9. 6. 3. 2. 2. 1. 1. 1. 1. 1. 1. 0. 0. 0. 0. 0. 0. 0. 0. 0.
      0. 0. 0. 0. 0. 0. 0. 0. 0. 0. 0. 0. 1. 1. 1. 1. 1. 2. 2. 3. 5. 8.
      110. 238. 225. 16. 23. 193. 242. 113. 9. 5. 3. 2. 2. 1. 1. 1. 1.
      1. 0. 0. 0. 0. 0. 0. 0. 0. 0. 0. 0. 0. 0. 0. 0. 0. 0. 0. 0. 0. 0.
      0. 0. 1. 1. 1. 1. 2. 2. 3. 5. 8. 105. 239. 224. 18. 21. 189. 243.
      128. 10. 6. 4. 2. 2. 1. 1. 1. 1. 1. 0. 0. 0. 0. 0. 0. 0. 0. 0. 0.
      0. 0. 0. 0. 0. 0. 0. 0. 0. 0. 0. 0. 1. 1. 1. 1. 1. 2. 2. 3. 5. 8.
      106. 239. 224. 16. 18. 185. 245. 150. 9. 6. 4. 2. 2. 1. 1. 1. 0.
      1. 0. 0. 0. 0. 0. 0. 0. 0. 0. 0. 0. 0. 0. 0. 0. 0. 0. 0. 0. 0. 0.
      0. 0. 1. 1. 1. 1. 2. 2. 3. 5. 8. 103. 237. 224. 16. 15. 182. 246.
      160. 9. 6. 4. 2. 2. 1. 1. 1. 1. 1. 0. 0. 0. 0. 0. 0. 0. 0. 0. 0.
      0. 0. 0. 0. 0. 0. 0. 0. 0. 0. 0. 0. 0. 1. 1. 1. 1. 1. 2. 3. 5. 7.
      98. 236. 226. 14. 15. 175. 248. 170. 10. 6. 4. 2. 2. 1. 1. 1. 1.
      1. 0. 0. 0. 0. 0. 0. 0. 0. 0. 0. 0. 0. 0. 0. 0. 0. 0. 0. 0. 0. 0.
      0. 1. 1. 1. 1. 1. 2. 2. 3. 5. 7. 98. 234. 228. 18. 17. 170. 249.
      176. 10. 5. 3. 2. 2. 1. 1. 1. 1. 1. 0. 0. 0. 0. 0. 0. 0. 0. 0. 0.
      0. 0. 0. 0. 0. 0. 0. 0. 0. 0. 0. 0. 1. 1. 1. 1. 1. 2. 2. 3. 4. 8.
      94. 233. 228. 18. 17. 167. 250. 182. 10. 5. 3. 2. 1. 1. 1. 1. 1.
      0. 0. 0. 0. 0. 0. 0. 0. 0. 0. 0. 0. 0. 0. 0. 0. 0. 0. 0. 0. 0. 0.
      0. 0. 1. 1. 1. 1. 1. 2. 3. 4. 8. 88. 232. 227. 19. 15. 159. 251.
      186. 11. 5. 3. 2. 1. 1. 1. 1. 1. 0. 0. 0. 0. 0. 0. 0. 0. 0. 0. 0.
      0. 0. 0. 0. 0. 0. 0. 0. 0. 0. 0. 0. 0. 1. 1. 1. 1. 1. 2. 3. 5. 8.
      84. 231. 226. 17. 17. 153. 252. 187. 10. 5. 3. 2. 1. 1. 1. 1. 1.
      0. 0. 0. 0. 0. 0. 0. 0. 0. 0. 0. 0. 0. 0. 0. 0. 0. 0. 0. 0. 0. 0.
      0. 0. 1. 1. 1. 1. 1. 2. 3. 4. 7. 83. 229. 225. 17. 17. 150. 252.
      188. 11. 6. 3. 2. 1. 1. 1. 1. 1. 0. 0. 0. 0. 0. 0. 0. 0. 0. 0. 0.
      0. 0. 0. 0. 0. 0. 0. 0. 0. 0. 0. 0. 0. 1. 1. 1. 1. 1. 2. 3. 3. 7.
      78. 228. 223. 18. 15. 144. 249. 191. 11. 5. 3. 2. 1. 1. 1. 1. 1.
      0. 0. 0. 0. 0. 0. 0. 0. 0. 0. 0. 0. 0. 0. 0. 0. 0. 0. 0. 0. 0. 0.
      0. 0. 1. 1. 1. 1. 1. 2. 3. 3. 6. 78. 223. 222. 17. 14. 150. 244.
      194. 11. 5. 3. 2. 1. 1. 1. 1. 1. 0. 0. 0. 0. 0. 0. 0. 0. 0. 0. 0.
      0. 0. 0. 0. 0. 0. 0. 0. 0. 0. 0. 0. 0. 1. 1. 1. 1. 1. 2. 3. 4. 5.
      66. 217. 215. 18. 10. 150. 237. 194. 11. 5. 3. 2. 1. 1. 1. 1. 1.
      0. 0. 0. 0. 0. 0. 0. 0. 0. 0. 0. 0. 0. 0. 0. 0. 0. 0. 0. 0. 0. 0.
      0. 0. 1. 1. 1. 1. 1. 2. 2. 4. 5. 42. 207. 200. 20. 11. 151. 231.
      194. 11. 5. 3. 2. 1. 1. 1. 1. 1. 0. 0. 0. 0. 0. 0. 0. 0. 0. 0. 0.
      0. 0. 0. 0. 0. 0. 0. 0. 0. 0. 0. 0. 0. 1. 1. 1. 1. 1. 1. 2. 3. 5.
      22. 191. 162. 17. 11. 143. 221. 193. 11. 5. 3. 2. 1. 1. 1. 1. 1.
      0. 0. 0. 0. 0. 0. 0. 0. 0. 0. 0. 0. 0. 0. 0. 0. 0. 0. 0. 0. 0. 0.
      0. 0. 1. 1. 1. 1. 1. 1. 2. 3. 4. 11. 141. 140. 15. 9. 122. 212.
      182. 8. 3. 2. 2. 1. 1. 1. 1. 0. 0. 0. 0. 0. 0. 0. 0. 0. 0. 0. 0.
      0. 0. 0. 0. 0. 0. 0. 0. 0. 0. 0. 0. 0. 0. 0. 1. 1. 1. 1. 2. 3. 4.
      10. 50. 67. 8. 14. 86. 201. 167. 8. 3. 2. 2. 1. 1. 1. 1. 0. 0. 0.
      0. 0. 0. 0. 0. 0. 0. 0. 0. 0. 0. 0. 0. 0. 0. 0. 0. 0. 0. 0. 0. 0.
      0. 1. 1. 1. 1. 1. 1. 2. 3. 7. 15. 16. 6. 10. 51. 169. 135. 5. 3.
      2. 1. 1. 1. 1. 1. 0. 0. 0. 0. 0. 0. 0. 0. 0. 0. 0. 0. 0. 0. 0. 0.
      0. 0. 0. 0. 0. 0. 0. 0. 0. 0. 0. 1. 1. 1. 1. 1. 2. 3. 4. 8. 9. 6.
      7. 17. 131. 23. 5. 3. 2. 1. 1. 1. 1. 1. 1. 0. 0. 0. 0. 0. 0. 0. 0.
      0. 0. 0. 0. 0. 0. 0. 0. 0. 0. 0. 0. 0. 0. 0. 0. 0. 0. 1. 1. 1. 1.
      1. 2. 2. 4. 5. 5. 5. 4. 11. 45. 12. 4. 3. 2. 1. 1. 1. 1. 0. 0. 0.
      0. 0. 0. 0. 0. 0. 0. 0. 0. 0. 0. 0. 0. 0. 0. 0. 0. 0. 0. 0. 0. 0.
      0. 0. 0. 1. 1. 1. 1. 1. 2. 2. 3. 4. 5. 4. 5. 12. 19. 9. 4. 2. 2.
      1. 1. 1. 0. 0. 0. 0. 0. 0. 0. 0. 0. 0. 0. 0. 0. 0. 0. 0. 0. 0. 0.
      0. 0. 0. 0. 0. 0. 0. 0. 0. 0. 1. 1. 1. 1. 1. 2. 2. 2. 4. 3. 4. 11.
      8. 9. 5. 3. 2. 2. 1. 1. 1. 1. 0. 0. 0. 0. 0. 0. 0. 0. 0. 0. 0. 0.
      0. 0. 0. 0. 0. 0. 0. 0. 0. 0. 0. 0. 0. 0. 0. 0. 1. 1. 1. 1. 1. 1.
      2. 2. 3. 3. 4. 6. 7. 6. 4. 3. 2. 1. 1. 1. 1. 0. 0. 0. 0. 0. 0. 0.
      0. 0. 0. 0. 0. 0. 0. 0. 0. 0. 0. 0. 0. 0. 0. 0. 0. 0. 0. 0. 0. 0.
      1. 1. 1. 1. 1. 1. 2. 2. 3. 3. 3. 3. 6. 3. 3. 2. 2. 1. 1. 1. 1. 1.
      0. 0. 0. 0. 0. 0. 0. 0. 0. 0. 0. 0. 0. 0. 0. 0. 0. 0. 0. 0. 0. 0.
      0. 0. 0. 0. 0. 0. 1. 0. 1. 1. 1. 1. 1. 1. 2. 3. 3. 3. 5. 3. 2. 2.
      2. 1. 1. 1. 1. 1. 0. 0. 0. 0. 0. 0. 0. 0. 0. 0. 0. 0. 0. 0. 0. 0.
      0. 0. 0. 0. 0. 0. 0. 0. 0. 0. 0. 0. 1. 0. 0. 1. 1. 1. 1. 1. 2. 2.
      3. 3. 4. 3. 2. 2. 1. 1. 1. 1. 1. 1. 0. 0. 0. 0. 0. 0. 0. 0. 0. 0.
      0. 0. 0. 0. 0. 0. 0. 0. 0. 0. 0. 0. 0. 0. 0. 0. 0. 0. 1. 0. 0. 1.
      1. 1. 1. 1. 2. 2. 3.</_>
    <_>
      0. 0. 0. 0. 0. 0. 0. 0. 0. 0. 0. 0. 0. 0. 0. 0. 0. 0. 0. 1. 2. 4.
      5. 6. 7. 6. 4. 2. 1. 0. 0. 0. 1. 0. 0. 0. 0. 0. 0. 0. 1. 1. 1. 1.
      1. 1. 1. 1. 1. 1. 0. 0. 0. 0. 0. 0. 0. 0. 0. 0. 0. 0. 0. 0. 0. 0.
      1. 0. 0. 0. 0. 1. 1. 1. 0. 0. 0. 0. 1. 3. 4. 5. 3. 2. 1. 1. 0. 0.
      0. 0. 1. 1. 1. 1. 1. 1. 1. 1. 1. 1. 0. 0. 0. 0. 0. 0. 0. 0. 0. 0.
      0. 0. 0. 0. 0. 0. 0. 0. 0. 1. 1. 2. 2. 2. 4. 4. 3. 2. 2. 3. 3. 4.
      2. 2. 1. 0. 0. 0. 0. 0. 1. 1. 1. 1. 1. 1. 1. 1. 1. 1. 0. 0. 0. 0.
      0. 0. 0. 0. 0. 0. 0. 0. 0. 0. 0. 0. 0. 0. 1. 2. 2. 3. 3. 3. 2. 1.
      1. 0. 0. 0. 0. 1. 1. 0. 0. 0. 0. 0. 0. 1. 1. 1. 1. 1. 1. 1. 1. 1.
      1. 1. 0. 0. 0. 0. 0. 0. 0. 0. 0. 0. 0. 0. 0. 0. 0. 0. 0. 1. 1. 1.
      0. 0. 0. 0. 0. 0. 0. 0. 0. 0. 0. 0. 0. 0. 0. 0. 0. 1. 1. 2. 1. 1.
      1. 1. 1. 1. 1. 1. 1. 1. 0. 0. 0. 0. 0. 0. 0. 0. 1. 0. 0. 0. 0. 0.
      0. 0. 0. 0. 1. 0. 0. 0. 0. 0. 2. 2. 1. 1. 0. 0. 0. 0. 0. 0. 0. 0.
      0. 0. 1. 1. 1. 1. 1. 1. 1. 1. 1. 1. 2. 2. 0. 0. 0. 0. 0. 0. 0. 0.
      1. 1. 0. 0. 0. 0. 0. 0. 0. 0. 1. 0. 0. 0. 1. 1. 0. 0. 0. 0. 0. 0.
      0. 1. 1. 0. 0. 0. 0. 0. 0. 0. 1. 1. 1. 1. 1. 1. 1. 1. 2. 2. 0. 0.
      0. 0. 0. 0. 0. 0. 1. 1. 1. 0. 0. 0. 0. 0. 0. 0. 0. 0. 0. 0. 0. 0.
      1. 1. 1. 1. 1. 1. 1. 1. 1. 1. 1. 1. 1. 1. 1. 1. 1. 1. 1. 1. 1. 1.
      1. 1. 1. 1. 1. 2. 1. 3. 2. 0. 1. 2. 1. 1. 1. 1. 1. 0. 0. 0. 0. 0.
      0. 0. 0. 0. 0. 0. 0. 0. 0. 0. 0. 0. 1. 1. 1. 1. 1. 1. 1. 1. 1. 1.
      1. 0. 1. 0. 2. 0. 4. 0. 1. 1. 1. 0. 1. 0. 1. 4. 2. 0. 1. 1. 1. 1.
      1. 0. 0. 0. 0. 0. 0. 0. 0. 0. 0. 0. 0. 0. 0. 0. 0. 0. 1. 1. 1. 1.
      1. 1. 1. 1. 1. 1. 2. 0. 1. 5. 1. 3. 0. 2. 1. 1. 1. 5. 1. 5. 0. 1.
      0. 1. 1. 1. 1. 1. 1. 1. 1. 1. 0. 0. 0. 0. 0. 0. 0. 0. 0. 0. 0. 0.
      0. 0. 0. 1. 1. 1. 1. 1. 1. 1. 1. 1. 1. 2. 1. 0. 3. 3. 1. 2. 2. 2.
      0. 2. 0. 4. 0. 4. 1. 2. 1. 1. 1. 1. 1. 1. 1. 1. 0. 0. 0. 0. 0. 0.
      0. 0. 0. 0. 0. 0. 0. 0. 0. 1. 1. 1. 1. 1. 1. 1. 1. 1. 0. 3. 2. 2.
      5. 2. 7. 0. 2. 2. 3. 0. 8. 0. 1. 5. 1. 3. 1. 1. 1. 1. 1. 1. 1. 1.
      0. 0. 0. 0. 0. 0. 0. 0. 1. 0. 0. 0. 0. 0. 1. 1. 1. 1. 1. 1. 1. 1.
      1. 1. 3. 0. 4. 9. 1. 1. 5. 2. 2. 2. 3. 3. 1. 5. 2. 1. 1. 3. 2. 2.
      1. 1. 1. 1. 1. 1. 1. 1. 1. 0. 0. 0. 0. 0. 1. 0. 0. 0. 0. 1. 1. 1.
      1. 1. 1. 1. 1. 1. 2. 2. 4. 2. 7. 4. 23. 20. 5. 5. 3. 2. 2. 4. 8.
      7. 7. 4. 3. 1. 2. 2. 1. 1. 1. 1. 1. 1. 1. 1. 1. 1. 0. 0. 0. 0. 0.
      0. 0. 0. 0. 1. 1. 1. 1. 1. 1. 2. 2. 2. 2. 2. 4. 7. 9. 53. 108. 96.
      37. 7. 4. 4. 3. 13. 64. 10. 9. 4. 2. 5. 2. 2. 1. 1. 1. 1. 1. 1. 1.
      1. 1. 1. 0. 0. 0. 0. 0. 0. 0. 0. 0. 0. 1. 1. 1. 1. 1. 2. 2. 2. 2.
      2. 4. 5. 9. 148. 206. 186. 82. 9. 4. 4. 9. 62. 138. 117. 16. 7. 5.
      4. 3. 2. 1. 2. 2. 1. 1. 1. 1. 1. 1. 1. 1. 1. 0. 0. 0. 0. 0. 0. 0.
      0. 1. 1. 1. 1. 1. 1. 2. 2. 3. 4. 7. 6. 24. 162. 220. 206. 106. 10.
      5. 5. 6. 106. 203. 207. 120. 13. 1. 7. 3. 2. 2. 2. 2. 1. 1. 1. 1.
      1. 1. 1. 1. 1. 0. 0. 0. 0. 0. 0. 1. 1. 1. 1. 1. 1. 2. 2. 2. 2. 3.
      4. 6. 13. 45. 167. 225. 218. 123. 10. 10. 9. 11. 116. 230. 225.
      199. 11. 13. 3. 4. 3. 2. 2. 2. 1. 1. 1. 1. 1. 1. 1. 1. 0. 0. 0. 0.
      0. 0. 1. 1. 1. 1. 1. 1. 2. 2. 2. 2. 3. 4. 5. 5. 14. 65. 172. 230.
      228. 141. 10. 9. 8. 13. 115. 228. 235. 204. 18. 10. 4. 5. 3. 3. 3.
      2. 1. 1. 1. 1. 1. 1. 1. 1. 0. 0. 0. 0. 0. 0. 1. 1. 1. 1. 1. 1. 2.
      2. 2. 2. 3. 4. 5. 7. 11. 73. 174. 231. 231. 153. 12. 8. 7. 14.
      104. 240. 242. 214. 12. 10. 6. 5. 4. 3. 3. 2. 2. 1. 1. 1. 1. 1. 1.
      1. 0. 0. 0. 0. 0. 0. 1. 1. 1. 1. 1. 1. 1. 2. 2. 2. 3. 4. 5. 9. 10.
      73. 175. 232. 233. 165. 12. 8. 7. 11. 101. 236. 241. 219. 14. 11.
      7. 5. 4. 3. 3. 3. 2. 1. 1. 1. 1. 1. 1. 1. 1. 1. 1. 0. 1. 1. 1. 1.
      1. 1. 1. 1. 1. 2. 2. 2. 3. 4. 5. 8. 12. 68. 169. 232. 237. 177.
      11. 9. 8. 11. 104. 241. 245. 224. 15. 12. 7. 5. 4. 3. 3. 3. 2. 1.
      1. 1. 1. 1. 1. 1. 1. 1. 1. 1. 1. 1. 1. 1. 1. 1. 1. 1. 1. 2. 2. 3.
      3. 4. 5. 6. 13. 59. 158. 233. 239. 191. 13. 11. 10. 14. 96. 240.
      246. 226. 14. 10. 7. 5. 4. 3. 3. 3. 2. 1. 1. 1. 1. 1. 1. 1. 1. 1.
      1. 1. 1. 1. 1. 1. 1. 1. 1. 1. 2. 2. 2. 3. 3. 4. 5. 8. 13. 52. 151.
      235. 240. 202. 20. 10. 8. 13. 95. 242. 247. 228. 15. 11. 6. 5. 4.
      3. 3. 2. 2. 1. 1. 1. 1. 1. 1. 1. 1. 1. 1. 0. 0. 1. 1. 1. 1. 1. 1.
      2. 2. 2. 3. 3. 3. 4. 5. 8. 10. 48. 144. 233. 243. 210. 32. 10. 7.
      13. 92. 241. 248. 226. 14. 11. 7. 5. 4. 3. 3. 2. 1. 1. 1. 1. 1. 1.
      1. 1. 1. 1. 1. 1. 1. 1. 1. 1. 1. 1. 1. 2. 2. 2. 3. 3. 3. 4. 5. 7.
      10. 41. 140. 234. 245. 210. 41. 10. 7. 16. 89. 243. 249. 224. 13.
      10. 7. 5. 4. 3. 3. 2. 2. 1. 1. 1. 1. 1. 1. 1. 1. 1. 1. 1. 1. 1. 1.
      1. 1. 1. 1. 2. 1. 2. 2. 2. 2. 3. 5. 6. 11. 36. 138. 235. 245. 210.
      55. 11. 8. 15. 82. 243. 248. 222. 12. 10. 7. 5. 4. 3. 3. 2. 2. 1.
      1. 1. 1. 1. 1. 1. 1. 1. 1. 1. 1. 1. 1. 1. 1. 1. 1. 1. 1. 1. 2. 2.
      2. 3. 4. 6. 11. 34. 139. 232. 242. 210. 67. 11. 8. 10. 73. 241.
      243. 216. 11. 12. 6. 5. 4. 3. 3. 3. 2. 1. 1. 1. 1. 1. 1. 1. 1. 1.
      1. 1. 1. 1. 1. 1. 1. 1. 1. 1. 1. 1. 2. 2. 2. 3. 4. 7. 8. 28. 139.
      227. 240. 212. 77. 11. 8. 12. 71. 240. 240. 205. 12. 12. 6. 5. 4.
      3. 3. 2. 2. 1. 2. 1. 1. 1. 1. 1. 1. 1. 1. 1. 1. 1. 1. 1. 1. 1. 1.
      1. 1. 1. 2. 2. 2. 3. 4. 8. 6. 20. 135. 223. 240. 214. 87. 11. 8.
      14. 72. 234. 235. 188. 13. 10. 6. 5. 3. 2. 2. 2. 2. 1. 1. 1. 1. 1.
      1. 0. 0. 0. 0. 1. 1. 1. 1. 1. 1. 1. 1. 1. 1. 1. 2. 2. 2. 3. 4. 6.
      8. 14. 127. 216. 235. 211. 98. 11. 8. 10. 68. 224. 228. 174. 12.
      8. 7. 4. 3. 2. 2. 2. 1. 1. 1. 1. 1. 1. 1. 0. 0. 0. 0. 0. 0. 1. 1.
      1. 1. 1. 1. 1. 1. 1. 2. 2. 2. 3. 4. 2. 10. 11. 121. 208. 227. 205.
      104. 10. 7. 11. 44. 196. 213. 147. 11. 5. 6. 4. 3. 2. 1. 1. 1. 1.
      1. 0. 0. 0. 0. 0. 0. 0. 0. 1. 1. 1. 1. 0. 1. 1. 1. 1. 1. 1. 1. 2.
      2. 3. 3. 3. 6. 14. 115. 194. 216. 183. 98. 9. 7. 5. 31. 141. 126.
      64. 11. 2. 4. 3. 3. 2. 1. 1. 1. 1. 1. 1. 1. 1. 1. 1. 1. 1. 1. 1.
      1. 0. 0. 0. 0. 1. 1. 1. 1. 1. 1. 1. 2. 2. 2. 4. 6. 3. 46. 154.
      190. 125. 56. 9. 7. 5. 8. 19. 22. 12. 3. 6. 4. 3. 2. 1. 1. 1. 1.
      1. 1. 1. 1. 1. 1. 1. 1. 1. 1. 0. 0. 0. 0. 0. 0. 1. 1. 1. 1. 1. 1.
      1. 1. 1. 2. 1. 3. 5. 5. 44. 63. 44. 10. 7. 5. 3. 7. 4. 5. 10. 5.
      0. 2. 2. 2. 1. 1. 1. 1. 1. 1. 0. 0. 0. 0. 0. 0. 0. 0. 0. 0. 0. 0.
      0. 0. 0. 1. 1. 1. 1. 1. 1. 1. 1. 1. 1. 7. 3. 8. 5. 4. 9. 4. 4. 3.
      5. 0. 5. 0. 0. 5. 4. 5. 2. 1. 1. 1. 1. 1. 1. 1. 0. 0. 0. 0. 0. 0.
      0. 0. 0. 0. 0. 0. 0. 0. 1. 1. 1. 1. 1. 1. 1. 1. 1. 1. 0. 0. 0. 4.
      4. 10. 3. 4. 2. 1. 2. 4. 0. 6. 2. 0. 3. 1. 1. 1. 1. 1. 1. 1. 1. 0.
      0. 0. 0. 0. 0. 0. 0. 0. 0. 0. 0. 0. 0. 0. 0. 0. 1. 1. 1. 1. 1. 1.
      1. 1. 4. 0. 6. 3. 0. 1. 3. 3. 2. 1. 0. 5. 1. 0. 3. 7. 2. 0. 1. 1.
      1. 1. 1. 1. 0. 0. 0. 0. 0. 0. 0. 0. 0. 0. 0. 0. 0. 0. 0. 0. 0. 0.
      0. 0. 0. 0. 0. 1. 1. 1. 1. 1. 0. 1. 7. 3. 2. 2. 2. 1. 4. 0. 3. 3.
      0. 0. 1. 2. 1. 1. 1. 1. 1. 1. 0. 0. 0. 0. 0. 0. 0. 0. 0. 0. 0. 0.
      0. 0. 0. 0. 0. 0. 0. 0. 0. 0. 0. 1. 1. 1. 2. 0. 4. 3. 0. 1. 0. 2.
      1. 1. 1. 1. 1. 1. 1. 1. 1. 1. 1. 1. 1. 1. 1. 1. 1. 0. 0. 0. 0. 0.
      0. 0. 0. 0. 0. 0. 0. 0. 0. 0. 0. 0. 0. 0. 0. 0. 0. 1. 1. 1. 1. 1.
      1. 1. 1. 1. 1. 1. 1. 1. 1. 1. 1. 1. 1. 1. 1. 1. 1. 1. 1. 1. 1. 1.
      0. 0. 0. 0. 0. 0. 0. 0. 0. 0. 0. 0. 0. 0. 0. 0. 0. 0. 0. 0. 0. 0.
      0. 0. 1. 1. 1. 1. 1. 1. 1. 1. 1. 1. 1. 1. 1. 1. 1. 1. 1. 1. 1. 1.
      1. 1. 0. 1. 1. 1. 0. 0. 0. 0. 0. 0. 0. 0. 0. 0. 0. 0. 0. 0. 0. 0.
      0. 0. 0. 0. 0. 0. 0. 0. 0. 0. 1. 1. 1. 1. 1. 1. 1. 1. 1. 1. 1. 1.
      1. 1. 1. 1. 1. 1. 1. 1. 0. 0. 1. 1. 0. 0. 0. 0. 0. 0. 0. 0. 0. 0.
      0. 0. 0. 0. 0. 0. 0. 0. 0. 0. 0. 0. 0. 0. 0. 0. 1. 1. 1. 1. 1. 1.
      1. 1. 1. 1. 1. 1. 1. 1. 1. 1. 1. 1. 1. 1. 0. 0. 1. 1. 0. 0. 0. 0.
      0. 0. 0. 0. 0. 0. 0. 0. 0. 0. 0. 0. 0. 0. 0. 0. 0. 0. 0. 0. 0. 0.
      0. 0. 0. 0. 0. 0. 0. 0. 1. 1. 1. 1. 1. 1. 1. 1. 1. 1. 1. 1. 0. 0.
      0. 1. 0. 0. 0. 0. 0. 0. 0. 0. 0. 0. 0. 0. 0. 0. 0. 0. 0. 0. 0. 0.
      0. 0. 0. 0. 0. 0. 0. 0. 0. 0. 0. 0. 0. 0. 0. 0. 0. 0. 0. 0. 0. 0.
      0. 0. 1. 1. 0. 0. 0. 0. 0. 0. 0. 0. 0. 0. 0. 0. 0. 0. 0. 0. 0. 0.
      0. 0. 0. 0. 0. 0. 0. 0. 0. 0. 0. 0. 0. 0. 0. 0. 0. 0. 0. 0. 0. 0.
      0. 0. 0. 0. 0. 0. 0. 0. 1. 0. 0. 0. 0. 0. 0. 0. 0. 0. 0. 0. 0. 0.
      0. 0. 0. 0. 0. 0. 0. 0. 0. 0. 0. 0. 0. 0. 0. 0. 0. 0. 0. 0. 0. 0.
      0. 0. 0. 0. 0. 0. 0. 0. 0. 0. 0. 0. 0. 0. 0. 0. 1. 1. 0. 0. 0. 1.
      0. 0. 0. 0. 0. 0. 0. 1. 0. 0. 0. 0. 0. 0. 0. 0. 0. 0. 0. 0. 0. 0.
      0. 0. 0. 0. 0. 0. 0. 0. 0. 0. 0. 0. 0. 0. 0. 0. 0. 0. 0. 0. 0. 0.
      1. 1. 0. 0. 0. 1. 0. 0. 0. 0. 0. 0. 1. 1. 0. 0. 0. 0. 0. 0. 0. 0.
      0. 0. 0. 0. 0. 0. 0. 0. 0. 0. 0. 0. 0. 0. 0. 0. 0. 0.</_>
    <_>
      2. 0. 0. 0. 1. 0. 0. 0. 0. 0. 0. 0. 0. 0. 0. 0. 0. 0. 0. 0. 0. 0.
      0. 0. 0. 0. 0. 0. 0. 0. 1. 3. 5. 4. 4. 4. 5. 5. 3. 2. 7. 25. 11.
      51. 3. 3. 4. 5. 6. 6. 2. 0. 0. 0. 0. 0. 0. 0. 0. 0. 0. 0. 0. 0. 0.
      0. 0. 0. 0. 0. 0. 0. 0. 0. 0. 0. 0. 0. 0. 0. 1. 2. 3. 3. 3. 3. 4.
      4. 3. 2. 0. 1. 1. 1. 11. 2. 0. 0. 1. 1. 3. 1. 0. 0. 0. 0. 0. 0. 0.
      0. 0. 0. 0. 0. 0. 0. 0. 0. 0. 0. 0. 0. 0. 0. 0. 0. 1. 2. 1. 1. 1.
      2. 0. 0. 0. 0. 1. 1. 0. 0. 4. 1. 5. 0. 0. 4. 0. 2. 1. 1. 3. 1. 0.
      0. 0. 0. 0. 0. 0. 0. 0. 0. 0. 0. 0. 0. 0. 0. 0. 0. 0. 0. 0. 0. 0.
      0. 1. 2. 2. 1. 1. 2. 3. 4. 4. 5. 6. 6. 4. 3. 0. 0. 1. 2. 0. 7. 15.
      4. 0. 0. 3. 1. 0. 0. 0. 0. 0. 1. 0. 0. 0. 0. 0. 0. 0. 0. 0. 0. 0.
      0. 0. 0. 0. 0. 0. 0. 0. 0. 0. 0. 0. 1. 0. 0. 0. 1. 1. 1. 0. 0. 1.
      1. 0. 0. 4. 0. 5. 0. 0. 0. 2. 1. 0. 0. 0. 0. 0. 1. 0. 0. 0. 0. 0.
      0. 0. 0. 1. 0. 0. 0. 0. 0. 0. 0. 0. 0. 0. 0. 0. 0. 0. 0. 0. 0. 0.
      0. 0. 0. 0. 0. 0. 2. 0. 1. 0. 1. 0. 5. 1. 1. 1. 1. 1. 1. 1. 0. 0.
      1. 1. 1. 1. 1. 1. 1. 1. 1. 1. 1. 0. 0. 0. 0. 0. 0. 1. 0. 0. 0. 0.
      0. 0. 1. 0. 0. 0. 0. 0. 0. 0. 0. 2. 0. 0. 0. 2. 1. 0. 1. 1. 1. 1.
      0. 1. 1. 1. 1. 1. 1. 1. 1. 1. 1. 1. 1. 1. 1. 1. 1. 0. 0. 0. 0. 0.
      0. 0. 0. 0. 0. 0. 0. 0. 0. 0. 0. 0. 0. 0. 0. 1. 1. 1. 2. 0. 1. 2.
      0. 2. 1. 1. 1. 1. 0. 2. 1. 2. 3. 1. 1. 1. 1. 1. 1. 1. 1. 1. 1. 1.
      1. 0. 0. 0. 0. 0. 0. 0. 0. 0. 0. 0. 0. 0. 0. 0. 0. 0. 0. 1. 1. 1.
      1. 1. 1. 2. 2. 2. 1. 1. 2. 1. 1. 2. 4. 4. 0. 2. 3. 0. 2. 1. 1. 1.
      1. 1. 1. 1. 1. 1. 1. 1. 1. 0. 0. 0. 0. 0. 0. 0. 0. 0. 0. 0. 0. 0.
      0. 0. 0. 1. 1. 1. 1. 1. 1. 1. 1. 1. 1. 1. 1. 1. 1. 0. 1. 0. 2. 4.
      1. 4. 1. 1. 1. 2. 2. 2. 1. 1. 1. 1. 1. 1. 1. 1. 1. 0. 0. 0. 0. 0.
      0. 0. 0. 0. 0. 0. 0. 0. 0. 1. 1. 1. 1. 1. 1. 1. 1. 1. 1. 1. 1. 1.
      1. 1. 4. 2. 4. 4. 0. 2. 6. 2. 2. 2. 2. 2. 1. 1. 0. 1. 1. 1. 1. 1.
      1. 0. 0. 1. 1. 0. 0. 0. 0. 0. 0. 1. 1. 0. 1. 1. 1. 1. 1. 1. 1. 1.
      1. 2. 2. 2. 2. 2. 2. 1. 2. 5. 1. 7. 8. 0. 3. 2. 2. 2. 2. 1. 1. 1.
      1. 1. 1. 1. 1. 1. 1. 0. 0. 1. 1. 1. 0. 0. 0. 0. 0. 1. 1. 0. 1. 1.
      1. 1. 1. 1. 1. 1. 2. 2. 2. 2. 2. 2. 2. 5. 5. 2. 9. 6. 2. 9. 3. 3.
      3. 2. 2. 1. 1. 1. 1. 1. 1. 1. 1. 1. 1. 0. 0. 1. 1. 1. 0. 0. 0. 0.
      0. 1. 1. 0. 1. 1. 1. 1. 1. 1. 1. 2. 2. 2. 2. 2. 3. 3. 3. 3. 5. 8.
      41. 39. 9. 10. 3. 5. 4. 3. 2. 2. 2. 2. 2. 1. 1. 1. 1. 1. 1. 1. 1.
      1. 0. 0. 0. 0. 0. 0. 0. 1. 0. 0. 1. 1. 1. 1. 1. 1. 2. 2. 2. 2. 3.
      5. 7. 7. 7. 6. 6. 31. 96. 137. 85. 14. 8. 6. 5. 3. 2. 2. 2. 2. 3.
      2. 2. 1. 1. 1. 1. 1. 1. 0. 0. 0. 0. 0. 0. 0. 0. 1. 0. 0. 0. 1. 1.
      1. 1. 1. 2. 3. 3. 3. 5. 9. 12. 60. 59. 4. 13. 76. 161. 209. 174.
      83. 11. 8. 5. 3. 2. 3. 2. 2. 1. 1. 1. 1. 1. 1. 1. 0. 0. 1. 0. 0.
      0. 0. 0. 1. 1. 0. 0. 1. 1. 1. 1. 1. 1. 1. 4. 1. 3. 5. 5. 6. 110.
      199. 107. 9. 9. 97. 183. 218. 229. 152. 11. 9. 6. 3. 3. 3. 2. 2.
      1. 1. 1. 1. 1. 1. 1. 1. 0. 1. 1. 1. 1. 1. 0. 0. 0. 0. 1. 1. 1. 1.
      1. 1. 1. 1. 0. 2. 3. 3. 9. 13. 224. 222. 136. 6. 11. 109. 199.
      233. 241. 161. 17. 10. 7. 4. 3. 3. 3. 2. 2. 1. 1. 1. 1. 1. 1. 1.
      1. 1. 1. 1. 1. 1. 1. 0. 0. 1. 1. 1. 1. 1. 1. 1. 1. 3. 5. 5. 7. 4.
      13. 9. 232. 230. 151. 12. 14. 116. 208. 241. 246. 165. 15. 11. 8.
      5. 4. 4. 3. 2. 2. 1. 1. 1. 1. 1. 1. 1. 1. 1. 1. 1. 2. 1. 1. 0. 0.
      1. 1. 1. 1. 1. 1. 1. 2. 2. 0. 0. 3. 4. 9. 19. 227. 241. 169. 11.
      12. 119. 211. 242. 248. 169. 12. 11. 8. 5. 4. 4. 3. 2. 2. 2. 1. 1.
      1. 1. 1. 1. 1. 1. 1. 1. 2. 1. 1. 0. 0. 1. 1. 1. 1. 1. 1. 1. 1. 1.
      1. 8. 5. 11. 12. 12. 223. 243. 177. 10. 18. 126. 216. 249. 247.
      166. 18. 12. 9. 6. 4. 4. 3. 2. 2. 2. 2. 1. 1. 1. 1. 1. 1. 1. 1. 1.
      1. 1. 1. 1. 0. 1. 1. 1. 1. 1. 1. 1. 2. 3. 4. 4. 0. 5. 16. 13. 215.
      242. 185. 9. 13. 126. 216. 246. 252. 175. 11. 12. 9. 5. 4. 4. 3.
      2. 2. 2. 2. 1. 1. 1. 1. 1. 1. 1. 1. 1. 1. 1. 1. 1. 1. 1. 1. 1. 1.
      1. 1. 2. 2. 3. 3. 3. 8. 6. 9. 14. 203. 244. 198. 12. 15. 128. 221.
      250. 251. 173. 16. 12. 9. 5. 4. 4. 3. 2. 2. 2. 2. 1. 1. 1. 1. 1.
      1. 1. 1. 1. 0. 1. 1. 1. 1. 1. 1. 1. 1. 1. 1. 2. 2. 3. 3. 5. 2. 7.
      14. 15. 193. 244. 206. 11. 14. 132. 224. 250. 250. 175. 15. 12. 8.
      7. 6. 4. 3. 3. 2. 2. 2. 1. 1. 1. 1. 1. 1. 1. 1. 1. 0. 0. 1. 1. 0.
      1. 1. 1. 1. 1. 2. 2. 2. 3. 3. 5. 5. 4. 13. 26. 183. 246. 226. 11.
      14. 138. 227. 251. 251. 175. 17. 12. 9. 7. 6. 4. 3. 3. 2. 2. 2. 1.
      1. 1. 1. 1. 1. 1. 1. 1. 0. 0. 1. 1. 1. 1. 1. 1. 1. 1. 2. 2. 2. 0.
      5. 2. 6. 6. 11. 57. 201. 243. 228. 9. 13. 141. 229. 249. 250. 174.
      18. 12. 9. 7. 6. 4. 3. 3. 2. 2. 2. 1. 1. 1. 1. 1. 1. 1. 1. 1. 1.
      0. 1. 1. 1. 1. 1. 1. 1. 1. 2. 2. 2. 1. 4. 3. 6. 8. 10. 83. 213.
      249. 240. 11. 13. 145. 231. 249. 252. 176. 23. 12. 9. 7. 6. 4. 3.
      3. 2. 2. 2. 1. 1. 1. 1. 1. 1. 1. 1. 1. 1. 1. 1. 1. 1. 1. 1. 1. 1.
      1. 1. 2. 2. 4. 1. 6. 3. 7. 11. 84. 213. 246. 235. 12. 13. 144.
      231. 249. 250. 173. 22. 12. 9. 7. 5. 3. 3. 3. 2. 2. 2. 1. 1. 1. 1.
      1. 1. 1. 1. 1. 0. 0. 1. 1. 1. 1. 1. 1. 1. 1. 1. 2. 2. 4. 2. 6. 3.
      7. 11. 79. 216. 245. 226. 11. 13. 139. 227. 248. 245. 168. 19. 12.
      8. 6. 5. 3. 3. 3. 2. 2. 2. 1. 1. 1. 1. 1. 1. 1. 1. 1. 0. 0. 1. 1.
      1. 1. 1. 1. 1. 1. 1. 1. 2. 1. 5. 3. 4. 7. 10. 75. 217. 246. 213.
      13. 15. 134. 222. 245. 238. 164. 20. 11. 7. 5. 4. 2. 2. 3. 2. 2.
      2. 1. 1. 1. 1. 1. 1. 0. 1. 1. 0. 0. 1. 1. 1. 1. 1. 1. 1. 1. 1. 1.
      1. 1. 4. 2. 5. 7. 9. 65. 201. 237. 192. 11. 12. 125. 213. 237.
      229. 159. 19. 10. 7. 5. 4. 2. 2. 2. 1. 2. 2. 1. 1. 1. 1. 1. 1. 0.
      1. 0. 0. 0. 1. 1. 1. 1. 1. 1. 1. 1. 1. 1. 1. 4. 0. 4. 4. 6. 9. 50.
      179. 218. 164. 9. 11. 113. 199. 229. 218. 148. 17. 8. 6. 4. 3. 3.
      3. 2. 1. 1. 1. 1. 1. 2. 1. 1. 0. 0. 0. 1. 0. 0. 1. 1. 1. 1. 1. 1.
      1. 1. 1. 1. 1. 0. 5. 4. 3. 3. 5. 43. 161. 189. 95. 9. 6. 93. 178.
      209. 194. 123. 11. 7. 5. 3. 3. 2. 2. 2. 1. 1. 1. 1. 1. 1. 1. 1. 0.
      0. 1. 1. 0. 0. 1. 1. 1. 0. 0. 0. 0. 1. 1. 1. 1. 1. 0. 0. 2. 5. 8.
      13. 49. 73. 24. 5. 12. 70. 137. 180. 131. 39. 10. 5. 4. 3. 2. 2.
      2. 1. 1. 1. 1. 1. 1. 1. 1. 1. 0. 0. 1. 1. 0. 0. 1. 1. 0. 0. 0. 0.
      0. 1. 1. 1. 1. 0. 2. 2. 4. 1. 1. 6. 7. 15. 7. 4. 2. 20. 52. 59.
      34. 9. 3. 4. 3. 3. 2. 2. 2. 1. 0. 1. 1. 1. 1. 1. 1. 1. 0. 0. 1. 1.
      0. 0. 0. 0. 0. 0. 0. 0. 1. 1. 1. 2. 2. 0. 3. 2. 2. 5. 0. 5. 7. 1.
      4. 4. 3. 10. 10. 7. 12. 7. 6. 3. 3. 2. 2. 2. 2. 1. 1. 1. 1. 1. 1.
      1. 1. 1. 0. 0. 1. 1. 0. 0. 0. 0. 0. 0. 0. 1. 1. 1. 1. 1. 1. 0. 2.
      2. 0. 5. 2. 1. 0. 5. 1. 2. 7. 0. 6. 6. 1. 5. 0. 3. 2. 2. 2. 2. 1.
      1. 1. 1. 1. 1. 1. 1. 1. 1. 0. 0. 0. 0. 0. 0. 0. 0. 0. 0. 0. 0. 0.
      0. 0. 0. 0. 3. 0. 4. 0. 1. 1. 3. 3. 3. 0. 1. 4. 4. 0. 4. 4. 2. 3.
      2. 2. 2. 1. 1. 1. 1. 1. 1. 1. 0. 0. 1. 1. 0. 0. 0. 0. 0. 0. 0. 0.
      0. 0. 0. 0. 0. 0. 0. 0. 0. 0. 5. 0. 1. 3. 3. 1. 1. 0. 1. 0. 3. 0.
      4. 3. 0. 0. 4. 1. 2. 2. 1. 1. 0. 1. 1. 1. 1. 0. 0. 0. 0. 0. 0. 0.
      0. 0. 0. 0. 0. 0. 0. 0. 0. 0. 0. 0. 1. 1. 1. 1. 0. 2. 1. 0. 1. 0.
      1. 1. 1. 2. 1. 2. 3. 2. 2. 1. 1. 2. 2. 2. 2. 1. 1. 1. 1. 1. 1. 1.
      0. 0. 0. 0. 0. 0. 0. 0. 0. 0. 0. 0. 0. 0. 0. 0. 0. 0. 0. 0. 0. 0.
      0. 1. 1. 1. 1. 1. 1. 1. 1. 1. 1. 2. 2. 2. 1. 1. 1. 1. 1. 1. 1. 1.
      1. 1. 1. 1. 1. 0. 0. 0. 0. 0. 0. 0. 0. 0. 0. 0. 0. 0. 0. 0. 0. 0.
      0. 0. 0. 0. 0. 0. 0. 0. 1. 1. 1. 1. 1. 1. 1. 1. 1. 1. 1. 1. 1. 1.
      1. 1. 1. 1. 1. 1. 1. 1. 1. 1. 1. 0. 0. 0. 0. 0. 0. 0. 0. 0. 0. 0.
      0. 0. 0. 0. 0. 0. 0. 0. 0. 0. 0. 0. 0. 0. 1. 1. 1. 1. 0. 0. 1. 1.
      1. 1. 1. 1. 1. 1. 1. 1. 0. 1. 1. 1. 1. 1. 1. 0. 0. 0. 0. 0. 0. 0.
      0. 0. 0. 0. 0. 0. 0. 0. 0. 0. 0. 0. 0. 0. 0. 0. 0. 0. 0. 0. 0. 0.
      0. 0. 0. 0. 0. 0. 1. 1. 1. 1. 1. 1. 1. 1. 0. 1. 1. 1. 1. 1. 1. 0.
      0. 0. 0. 0. 0. 0. 0. 0. 0. 0. 0. 0. 0. 0. 0. 0. 0. 0. 0. 0. 0. 0.
      0. 0. 0. 0. 0. 0. 0. 0. 0. 0. 0. 0. 1. 1. 0. 1. 1. 1. 1. 1. 1. 1.
      1. 1. 1. 1. 1. 0. 0. 0. 0. 0. 0. 0. 0. 0. 0. 0. 0. 0. 0. 0. 0. 0.
      0. 0. 0. 0. 0. 0. 0. 0. 0. 0. 0. 0. 0. 0. 0. 0. 0. 0. 1. 0. 0. 0.
      1. 1. 1. 1. 1. 1. 0. 0. 0. 0. 0. 0. 0. 0. 0. 0. 0. 0. 0. 0. 0. 0.
      0. 0. 0. 0. 0. 0. 0. 0. 0. 0. 0. 0. 0. 0. 0. 0. 0. 0. 0. 0. 0. 0.
      0. 0. 1. 0. 0. 0. 1. 1. 1. 1. 1. 1. 0. 0. 0. 0. 0. 0. 0. 0. 0. 0.
      0. 0. 0. 0. 0. 0. 0. 0. 0. 0. 0. 0. 0. 0. 0. 0. 0. 0. 0. 0. 0. 0.
      0. 0. 0. 0. 0. 0. 0. 0. 0. 0. 0. 0. 0. 0. 0. 0. 0. 0. 0. 0. 0. 0.
      0. 0. 0. 0. 0. 0. 0. 0. 0. 0. 0. 0. 0. 0. 0. 0. 0. 0. 0. 0. 0. 0.
      0. 0. 0. 0. 0. 1. 1. 0. 0. 0. 0. 0. 0. 0. 0. 0. 0. 0. 0. 0. 0. 0.
      0. 0. 0. 0. 0. 0. 0. 0. 0. 0. 0. 0. 0. 0. 0. 0. 0. 0. 0. 0. 0. 0.
      0. 0. 0. 0. 1. 1. 0. 0. 0. 0. 0. 1. 1. 0. 0. 0. 0. 0. 0. 0.</_>
    <_>
      1. 1. 1. 0. 0. 0. 0. 0. 0. 0. 0. 0. 0. 0. 0. 0. 0. 0. 0. 0. 0. 0.
      0. 0. 1. 0. 0. 0. 0. 0. 4. 9. 7. 6. 10. 17. 18. 11. 4. 2. 14. 10.
      5. 2. 1. 1. 2. 2. 1. 1. 1. 1. 0. 0. 0. 0. 0. 0. 0. 0. 0. 0. 0. 0.
      0. 0. 0. 0. 0. 0. 0. 0. 0. 0. 0. 0. 0. 0. 0. 0. 2. 5. 9. 6. 5. 8.
      8. 4. 1. 1. 2. 1. 0. 0. 1. 1. 1. 0. 0. 0. 1. 0. 0. 0. 0. 0. 0. 0.
      0. 0. 0. 0. 0. 0. 0. 0. 0. 0. 0. 0. 0. 0. 0. 0. 0. 0. 0. 1. 1. 0.
      1. 3. 1. 0. 0. 2. 2. 0. 0. 0. 0. 0. 0. 1. 2. 1. 0. 0. 0. 0. 1. 0.
      0. 0. 0. 0. 0. 0. 0. 0. 0. 0. 0. 0. 0. 0. 0. 0. 0. 0. 0. 0. 0. 0.
      0. 0. 0. 2. 2. 2. 1. 2. 5. 4. 6. 8. 7. 4. 1. 1. 2. 2. 2. 2. 2. 1.
      1. 1. 1. 1. 1. 0. 0. 0. 0. 1. 0. 0. 0. 0. 0. 0. 0. 0. 0. 0. 0. 0.
      0. 0. 0. 0. 0. 0. 0. 0. 0. 1. 1. 1. 1. 1. 2. 2. 2. 2. 1. 0. 0. 0.
      0. 1. 1. 1. 0. 0. 1. 2. 0. 0. 2. 1. 0. 0. 1. 1. 1. 0. 0. 0. 0. 0.
      0. 0. 0. 0. 0. 0. 0. 0. 0. 0. 0. 0. 0. 0. 0. 0. 0. 0. 0. 0. 0. 0.
      0. 0. 0. 0. 1. 1. 0. 0. 0. 1. 0. 0. 1. 1. 0. 0. 2. 1. 1. 1. 1. 1.
      1. 0. 0. 0. 0. 0. 0. 0. 0. 0. 0. 0. 0. 0. 0. 0. 0. 0. 0. 1. 0. 0.
      0. 0. 0. 0. 0. 1. 1. 1. 0. 0. 0. 0. 0. 1. 1. 2. 1. 1. 0. 0. 1. 1.
      3. 2. 1. 1. 2. 2. 1. 0. 0. 0. 0. 0. 0. 0. 0. 0. 0. 0. 0. 0. 0. 0.
      0. 0. 0. 0. 0. 0. 0. 0. 0. 0. 0. 0. 0. 0. 0. 2. 2. 1. 1. 1. 1. 1.
      1. 1. 1. 2. 1. 1. 2. 2. 2. 1. 1. 0. 1. 1. 1. 1. 1. 1. 0. 0. 0. 0.
      0. 0. 0. 0. 0. 0. 0. 0. 0. 0. 0. 0. 0. 0. 0. 0. 0. 0. 0. 1. 1. 1.
      1. 1. 0. 1. 1. 0. 1. 1. 1. 0. 1. 1. 1. 1. 1. 1. 1. 1. 1. 1. 1. 1.
      1. 1. 1. 0. 0. 0. 0. 0. 0. 0. 0. 0. 0. 0. 0. 0. 0. 0. 0. 0. 0. 0.
      0. 0. 0. 1. 1. 1. 1. 1. 1. 2. 2. 1. 1. 1. 1. 1. 1. 1. 1. 1. 1. 2.
      2. 1. 1. 1. 1. 1. 1. 1. 1. 1. 1. 1. 0. 0. 0. 0. 0. 0. 0. 0. 0. 0.
      0. 0. 0. 0. 0. 0. 0. 0. 0. 1. 1. 1. 1. 1. 0. 1. 2. 2. 1. 1. 1. 2.
      1. 1. 3. 2. 2. 2. 2. 2. 1. 1. 1. 1. 1. 1. 1. 1. 1. 1. 0. 0. 0. 0.
      0. 0. 0. 0. 0. 0. 0. 0. 0. 0. 0. 0. 0. 0. 0. 1. 1. 1. 1. 1. 0. 1.
      1. 2. 2. 2. 2. 2. 1. 2. 2. 2. 2. 2. 2. 2. 2. 2. 1. 1. 1. 1. 1. 1.
      1. 1. 0. 0. 0. 0. 0. 0. 0. 0. 0. 0. 0. 0. 0. 0. 0. 0. 1. 1. 1. 1.
      1. 1. 1. 1. 2. 1. 1. 3. 3. 3. 2. 2. 1. 2. 1. 2. 2. 2. 2. 2. 2. 2.
      2. 1. 1. 1. 1. 1. 1. 1. 1. 0. 0. 0. 0. 0. 0. 0. 0. 0. 0. 0. 0. 0.
      0. 0. 1. 1. 1. 1. 1. 1. 1. 1. 2. 1. 1. 3. 3. 3. 3. 4. 3. 2. 2. 4.
      5. 6. 4. 3. 2. 2. 2. 2. 1. 1. 1. 1. 1. 1. 1. 1. 1. 1. 0. 0. 0. 0.
      0. 0. 0. 0. 0. 0. 0. 0. 1. 1. 1. 1. 1. 1. 1. 1. 2. 1. 2. 3. 4. 4.
      7. 10. 9. 5. 6. 8. 10. 10. 8. 5. 4. 3. 3. 2. 2. 1. 1. 1. 1. 2. 1.
      1. 1. 1. 1. 1. 1. 0. 0. 0. 0. 0. 0. 0. 0. 0. 1. 1. 1. 1. 1. 1. 1.
      1. 2. 2. 3. 5. 5. 7. 12. 18. 16. 9. 8. 43. 112. 75. 25. 8. 1. 4.
      3. 3. 2. 2. 2. 2. 1. 1. 1. 1. 1. 0. 0. 0. 0. 0. 0. 0. 0. 0. 0. 0.
      0. 1. 1. 1. 1. 1. 1. 2. 2. 2. 2. 2. 7. 2. 11. 25. 97. 142. 77. 8.
      6. 78. 183. 206. 99. 25. 6. 6. 3. 3. 2. 2. 2. 1. 1. 0. 1. 1. 1. 0.
      0. 0. 0. 0. 0. 0. 0. 0. 0. 0. 0. 1. 1. 1. 1. 1. 1. 2. 2. 3. 3. 4.
      1. 11. 31. 136. 213. 187. 109. 10. 10. 76. 209. 222. 178. 57. 11.
      2. 3. 3. 2. 2. 2. 1. 1. 0. 1. 1. 1. 0. 0. 0. 0. 0. 0. 0. 0. 0. 0.
      0. 1. 1. 1. 1. 1. 1. 1. 2. 2. 3. 2. 5. 9. 10. 60. 215. 218. 207.
      143. 10. 14. 72. 230. 235. 184. 70. 6. 7. 4. 3. 2. 2. 2. 2. 1. 1.
      1. 1. 1. 1. 0. 0. 0. 0. 0. 0. 0. 0. 0. 0. 1. 1. 1. 1. 1. 1. 1. 2.
      2. 3. 5. 1. 6. 8. 46. 228. 232. 224. 169. 10. 11. 58. 229. 242.
      190. 72. 12. 6. 4. 4. 3. 2. 2. 2. 1. 1. 1. 1. 1. 1. 0. 0. 0. 0. 0.
      0. 0. 0. 0. 0. 1. 1. 1. 1. 1. 1. 2. 2. 3. 3. 2. 10. 5. 15. 38.
      229. 241. 230. 191. 11. 14. 63. 227. 244. 195. 81. 7. 9. 5. 4. 3.
      3. 2. 2. 2. 1. 1. 1. 1. 1. 1. 0. 0. 0. 0. 0. 0. 0. 0. 0. 1. 1. 1.
      1. 1. 1. 2. 2. 3. 4. 4. 3. 4. 16. 18. 228. 242. 236. 205. 14. 14.
      49. 232. 247. 195. 86. 12. 8. 5. 4. 3. 3. 2. 2. 1. 1. 1. 1. 1. 1.
      1. 0. 0. 0. 0. 0. 0. 0. 0. 1. 1. 1. 1. 1. 1. 2. 2. 3. 3. 4. 2. 8.
      8. 17. 13. 218. 246. 232. 210. 25. 15. 44. 229. 250. 199. 80. 13.
      7. 5. 4. 3. 3. 2. 2. 1. 1. 1. 1. 1. 1. 1. 0. 0. 0. 0. 0. 0. 0. 0.
      1. 1. 1. 1. 1. 1. 2. 2. 3. 4. 4. 7. 4. 6. 14. 16. 203. 242. 236.
      210. 42. 11. 76. 232. 252. 199. 61. 11. 9. 5. 4. 3. 2. 2. 2. 2. 2.
      1. 1. 1. 1. 1. 1. 1. 0. 0. 0. 0. 1. 1. 1. 1. 1. 1. 1. 1. 2. 2. 2.
      3. 4. 5. 4. 9. 14. 16. 187. 248. 236. 206. 56. 17. 109. 233. 252.
      194. 40. 11. 7. 6. 5. 4. 3. 2. 2. 1. 1. 1. 1. 1. 1. 1. 1. 1. 0. 0.
      0. 0. 1. 1. 1. 1. 1. 1. 1. 1. 2. 2. 2. 3. 4. 5. 6. 9. 12. 22. 179.
      247. 240. 199. 64. 14. 134. 233. 254. 200. 29. 15. 9. 6. 5. 4. 3.
      2. 2. 1. 1. 1. 1. 1. 1. 1. 1. 1. 0. 0. 0. 1. 1. 1. 1. 1. 1. 1. 1.
      1. 2. 2. 2. 3. 4. 4. 6. 8. 12. 37. 173. 247. 242. 194. 73. 12.
      141. 231. 253. 213. 29. 12. 7. 5. 5. 3. 3. 2. 2. 2. 2. 1. 1. 1. 1.
      1. 1. 1. 1. 0. 0. 1. 1. 1. 1. 1. 1. 1. 1. 1. 2. 2. 2. 3. 3. 4. 6.
      7. 14. 56. 173. 248. 241. 186. 74. 13. 137. 224. 250. 219. 28. 12.
      8. 5. 4. 3. 3. 2. 2. 2. 1. 1. 1. 1. 1. 1. 1. 1. 1. 0. 0. 1. 1. 1.
      1. 1. 1. 1. 1. 1. 1. 2. 2. 2. 3. 4. 6. 6. 13. 63. 172. 247. 242.
      170. 61. 13. 131. 220. 250. 215. 25. 16. 9. 5. 4. 3. 2. 2. 2. 1.
      1. 1. 1. 1. 1. 1. 1. 1. 1. 1. 1. 1. 1. 1. 1. 1. 1. 1. 1. 1. 1. 2.
      2. 2. 3. 5. 6. 7. 9. 56. 171. 245. 243. 157. 34. 14. 124. 218.
      245. 195. 22. 13. 4. 5. 4. 3. 2. 2. 2. 1. 1. 1. 1. 1. 1. 1. 1. 1.
      1. 1. 1. 1. 1. 1. 1. 1. 1. 1. 1. 1. 1. 2. 2. 2. 3. 5. 5. 7. 9. 51.
      176. 243. 240. 165. 23. 10. 110. 210. 232. 173. 22. 11. 7. 4. 3.
      2. 2. 2. 2. 2. 1. 1. 1. 1. 1. 0. 1. 1. 1. 1. 1. 1. 1. 1. 1. 1. 1.
      1. 1. 1. 1. 1. 1. 2. 3. 4. 3. 8. 12. 52. 185. 243. 235. 162. 14.
      10. 98. 193. 216. 142. 22. 8. 5. 4. 3. 2. 2. 1. 1. 1. 1. 1. 1. 1.
      1. 0. 0. 0. 0. 0. 1. 1. 1. 1. 1. 1. 1. 1. 1. 1. 1. 1. 2. 2. 2. 3.
      4. 6. 7. 40. 196. 231. 222. 142. 8. 6. 50. 133. 194. 138. 25. 6.
      4. 4. 3. 2. 1. 1. 1. 1. 1. 1. 1. 1. 0. 0. 0. 0. 0. 0. 0. 0. 1. 1.
      1. 1. 1. 1. 1. 1. 1. 1. 1. 2. 2. 3. 5. 3. 8. 30. 174. 215. 205.
      133. 17. 6. 4. 50. 63. 27. 11. 7. 1. 3. 2. 1. 1. 1. 1. 1. 0. 1. 1.
      1. 0. 0. 0. 0. 0. 0. 0. 0. 0. 0. 1. 1. 1. 1. 1. 1. 1. 1. 1. 1. 2.
      4. 1. 6. 6. 10. 58. 189. 160. 42. 9. 2. 3. 9. 9. 4. 5. 0. 4. 2. 2.
      1. 1. 1. 1. 1. 1. 1. 1. 0. 0. 0. 0. 0. 0. 0. 0. 0. 0. 0. 0. 1. 1.
      1. 1. 1. 1. 1. 1. 1. 1. 1. 2. 5. 4. 9. 8. 50. 47. 8. 8. 4. 3. 6.
      4. 2. 5. 5. 1. 2. 2. 1. 1. 1. 1. 1. 1. 1. 1. 0. 0. 0. 0. 0. 0. 0.
      0. 0. 0. 0. 0. 1. 1. 1. 1. 1. 1. 1. 1. 1. 1. 3. 0. 5. 3. 5. 2. 8.
      7. 11. 2. 4. 0. 3. 0. 4. 2. 0. 5. 2. 1. 1. 1. 1. 1. 1. 1. 0. 0. 0.
      0. 0. 0. 0. 0. 0. 0. 0. 0. 0. 0. 1. 1. 0. 1. 1. 1. 1. 1. 1. 1. 2.
      3. 0. 1. 1. 8. 5. 5. 2. 3. 0. 0. 1. 6. 2. 0. 8. 0. 1. 1. 1. 1. 1.
      1. 1. 0. 0. 0. 0. 0. 0. 0. 0. 0. 0. 0. 0. 0. 0. 0. 0. 0. 0. 0. 1.
      1. 1. 1. 1. 1. 0. 5. 1. 4. 3. 0. 2. 3. 3. 4. 2. 1. 3. 1. 1. 2. 0.
      3. 1. 1. 1. 1. 1. 1. 0. 0. 0. 0. 0. 0. 0. 0. 0. 0. 0. 0. 0. 0. 0.
      0. 0. 0. 0. 0. 0. 1. 1. 1. 1. 1. 1. 1. 0. 1. 0. 4. 3. 0. 2. 2. 1.
      1. 1. 1. 1. 1. 1. 1. 1. 1. 1. 1. 0. 0. 0. 0. 0. 0. 0. 0. 0. 0. 0.
      0. 0. 0. 0. 0. 0. 0. 0. 0. 0. 0. 0. 0. 1. 1. 1. 2. 1. 1. 1. 1. 1.
      1. 2. 2. 1. 1. 1. 1. 1. 1. 1. 1. 1. 1. 1. 1. 1. 1. 0. 0. 0. 0. 0.
      0. 0. 0. 0. 0. 0. 0. 0. 0. 0. 0. 0. 0. 0. 0. 0. 0. 0. 0. 0. 1. 1.
      1. 1. 1. 1. 1. 1. 1. 1. 1. 1. 1. 0. 0. 0. 1. 1. 1. 1. 1. 1. 1. 1.
      1. 0. 0. 0. 0. 0. 0. 0. 0. 0. 0. 0. 0. 0. 0. 0. 0. 0. 0. 0. 0. 0.
      0. 0. 0. 0. 0. 1. 1. 1. 1. 1. 1. 1. 1. 1. 1. 1. 1. 0. 0. 0. 0. 0.
      1. 1. 1. 1. 1. 1. 0. 0. 0. 0. 0. 0. 0. 0. 0. 0. 0. 0. 0. 0. 0. 0.
      0. 0. 0. 0. 0. 0. 0. 0. 0. 0. 0. 0. 0. 1. 1. 1. 1. 1. 1. 1. 1. 1.
      1. 1. 1. 1. 1. 1. 1. 1. 1. 0. 0. 0. 0. 0. 0. 0. 0. 0. 0. 0. 0. 0.
      0. 0. 0. 0. 0. 0. 0. 0. 0. 0. 0. 0. 0. 0. 0. 0. 0. 0. 0. 1. 1. 1.
      1. 1. 1. 1. 1. 1. 1. 0. 0. 0. 0. 1. 1. 1. 1. 0. 0. 0. 0. 0. 0. 0.
      0. 0. 0. 0. 0. 0. 0. 0. 0. 0. 0. 0. 0. 0. 0. 0. 0. 0. 0. 0. 0. 0.
      0. 0. 0. 0. 0. 0. 0. 0. 0. 0. 0. 1. 1. 0. 0. 0. 0. 0. 0. 0. 0. 0.
      0. 0. 0. 0. 0. 0. 0. 0. 0. 0. 0. 0. 0. 0. 0. 0. 0. 0. 0. 0. 0. 0.
      0. 0. 0. 0. 0. 0. 0. 0. 1. 0. 0. 0. 0. 0. 0. 0. 0. 1. 1. 0. 0. 0.
      0. 0. 0. 0. 0. 0. 0. 0. 0. 0. 0. 0. 0. 0. 0. 0. 0. 0. 0. 0. 0. 0.
      0. 0. 0. 0. 0. 0. 0. 0. 0. 0. 0. 0. 0. 1. 1. 0. 0. 1. 1. 1. 1. 1.
      1. 1. 1. 0. 0. 0. 0. 0. 0. 0. 0. 0. 1. 1. 0. 0. 0. 0. 0. 0. 0. 0.
      0. 0. 0. 0. 0. 0. 0. 0. 0. 0. 0. 1. 1. 1. 0. 0. 0. 0. 0. 0. 0. 0.
      0. 0. 0. 0. 0. 0. 0. 0. 0. 0. 0. 0. 0. 0. 0. 0. 0. 0. 1. 1. 0. 0.
      0. 0. 0. 0. 0. 0. 0. 0. 0. 0. 0. 0. 0. 0. 0. 0. 0. 1. 1. 0. 0. 0.
      0. 0. 0. 0. 0. 0. 0. 0. 0. 0. 0. 0. 0. 0. 0.</_>
    <_>
      1. 1. 0. 0. 0. 0. 0. 0. 0. 0. 0. 0. 0. 0. 0. 0. 0. 0. 0. 0. 0. 0.
      0. 0. 0. 0. 0. 0. 0. 0. 0. 0. 2. 0. 1. 12. 19. 18. 15. 16. 17. 17.
      17. 17. 16. 15. 15. 15. 16. 15. 1. 0. 0. 0. 0. 0. 0. 0. 0. 0. 0.
      0. 0. 0. 0. 0. 0. 0. 0. 0. 0. 0. 0. 0. 0. 0. 0. 0. 0. 0. 0. 0. 0.
      0. 0. 6. 13. 17. 17. 17. 18. 17. 14. 13. 13. 13. 14. 14. 15. 15.
      0. 0. 0. 0. 0. 0. 0. 0. 0. 0. 0. 0. 0. 0. 0. 0. 0. 0. 0. 0. 0. 0.
      0. 0. 0. 0. 0. 0. 0. 0. 0. 0. 1. 1. 0. 0. 3. 7. 7. 4. 8. 5. 2. 1.
      1. 2. 2. 2. 5. 6. 1. 1. 0. 0. 0. 0. 0. 0. 0. 0. 0. 0. 0. 0. 0. 0.
      0. 0. 0. 0. 0. 0. 0. 0. 0. 0. 0. 0. 0. 0. 0. 0. 0. 1. 1. 0. 3. 6.
      6. 4. 3. 3. 2. 1. 1. 1. 0. 0. 0. 0. 1. 1. 1. 1. 1. 0. 0. 0. 0. 0.
      0. 0. 0. 0. 0. 0. 0. 0. 0. 0. 0. 0. 0. 0. 0. 0. 0. 1. 2. 3. 3. 4.
      1. 1. 1. 0. 0. 0. 0. 0. 0. 0. 1. 1. 1. 0. 0. 0. 1. 1. 1. 1. 1. 1.
      1. 1. 1. 1. 0. 0. 0. 0. 0. 0. 0. 0. 0. 0. 0. 0. 0. 0. 0. 0. 0. 0.
      0. 1. 1. 1. 2. 2. 0. 0. 0. 1. 2. 3. 5. 6. 0. 1. 2. 2. 1. 1. 2. 4.
      2. 1. 1. 1. 1. 1. 1. 1. 1. 1. 1. 1. 0. 0. 0. 0. 0. 0. 0. 0. 0. 0.
      0. 0. 0. 0. 1. 0. 0. 0. 0. 0. 0. 0. 1. 1. 0. 0. 0. 0. 0. 0. 0. 0.
      0. 0. 0. 0. 1. 2. 2. 2. 0. 1. 1. 1. 1. 1. 1. 1. 1. 1. 1. 0. 0. 0.
      0. 0. 0. 0. 0. 0. 0. 0. 0. 0. 0. 0. 0. 0. 0. 0. 1. 1. 0. 0. 0. 0.
      1. 2. 2. 1. 1. 1. 1. 2. 2. 2. 1. 0. 1. 1. 1. 1. 1. 1. 0. 0. 1. 2.
      1. 1. 1. 1. 1. 1. 1. 1. 0. 0. 0. 0. 0. 0. 0. 0. 0. 0. 0. 0. 0. 0.
      0. 0. 0. 0. 0. 0. 0. 0. 1. 1. 1. 1. 1. 1. 1. 1. 1. 1. 1. 1. 2. 2.
      2. 2. 1. 1. 1. 1. 1. 1. 1. 1. 1. 1. 1. 1. 0. 0. 0. 0. 0. 0. 0. 0.
      0. 0. 0. 0. 0. 0. 0. 0. 0. 0. 0. 0. 0. 0. 1. 1. 1. 1. 1. 1. 1. 1.
      1. 1. 1. 1. 2. 2. 2. 2. 2. 2. 1. 1. 1. 1. 1. 1. 1. 1. 1. 1. 0. 0.
      0. 0. 0. 0. 0. 0. 0. 0. 0. 0. 0. 0. 0. 0. 0. 0. 0. 0. 0. 1. 1. 1.
      1. 1. 1. 1. 1. 1. 1. 1. 1. 1. 2. 2. 2. 2. 2. 2. 1. 1. 1. 1. 1. 1.
      1. 1. 1. 1. 1. 1. 1. 0. 0. 0. 0. 0. 0. 0. 0. 0. 0. 0. 0. 0. 0. 0.
      0. 0. 0. 1. 1. 1. 1. 1. 1. 1. 1. 1. 1. 1. 1. 1. 2. 2. 2. 2. 2. 3.
      2. 2. 2. 2. 1. 1. 1. 1. 1. 1. 1. 1. 1. 0. 0. 0. 0. 0. 0. 0. 0. 0.
      0. 0. 0. 0. 0. 0. 0. 0. 0. 1. 1. 1. 1. 1. 1. 1. 1. 1. 1. 1. 1. 1.
      2. 2. 2. 2. 3. 3. 2. 2. 2. 2. 2. 1. 1. 1. 1. 1. 1. 1. 1. 1. 0. 0.
      0. 0. 0. 0. 0. 0. 0. 0. 0. 0. 0. 0. 0. 0. 1. 1. 1. 1. 1. 1. 1. 1.
      1. 2. 2. 2. 2. 2. 3. 4. 5. 5. 5. 4. 3. 2. 2. 2. 2. 2. 1. 1. 1. 1.
      1. 1. 1. 0. 0. 0. 0. 0. 0. 0. 0. 0. 0. 0. 0. 0. 0. 0. 1. 1. 1. 1.
      1. 1. 1. 1. 1. 2. 2. 2. 3. 3. 3. 3. 5. 7. 8. 9. 8. 6. 4. 3. 3. 2.
      2. 2. 2. 1. 1. 1. 1. 0. 0. 0. 0. 0. 0. 0. 0. 0. 0. 0. 0. 0. 0. 0.
      1. 1. 1. 1. 1. 1. 1. 1. 1. 1. 2. 2. 2. 3. 3. 3. 4. 4. 8. 32. 152.
      120. 29. 9. 10. 3. 4. 3. 2. 2. 2. 2. 1. 1. 1. 1. 1. 0. 0. 0. 0. 0.
      0. 0. 0. 0. 0. 0. 0. 0. 0. 1. 1. 1. 1. 1. 1. 1. 1. 2. 2. 5. 0. 3.
      5. 5. 6. 9. 10. 33. 202. 206. 141. 50. 10. 6. 4. 3. 3. 2. 2. 2. 2.
      1. 1. 1. 1. 0. 0. 0. 0. 0. 0. 0. 0. 0. 0. 0. 0. 1. 0. 1. 1. 1. 1.
      1. 1. 1. 3. 1. 1. 2. 3. 5. 6. 10. 54. 95. 12. 33. 222. 215. 235.
      78. 7. 6. 5. 4. 3. 2. 2. 2. 2. 1. 1. 1. 1. 0. 0. 0. 0. 0. 0. 0. 0.
      0. 0. 0. 0. 1. 0. 1. 1. 1. 1. 1. 1. 1. 0. 4. 2. 2. 10. 5. 9. 98.
      196. 146. 15. 38. 219. 236. 231. 97. 19. 4. 5. 4. 3. 3. 2. 2. 2.
      2. 1. 1. 1. 0. 0. 0. 0. 0. 0. 0. 0. 0. 0. 0. 0. 0. 0. 1. 1. 1. 1.
      1. 1. 2. 2. 6. 2. 1. 7. 6. 19. 201. 210. 184. 17. 62. 224. 241.
      237. 99. 17. 8. 6. 5. 4. 3. 3. 3. 2. 2. 1. 1. 1. 0. 0. 0. 0. 0. 0.
      0. 1. 1. 1. 1. 0. 0. 1. 1. 1. 1. 1. 1. 1. 2. 1. 0. 7. 8. 6. 7. 30.
      200. 230. 206. 22. 80. 216. 240. 227. 100. 14. 8. 6. 5. 4. 3. 3.
      3. 2. 2. 1. 1. 1. 0. 0. 0. 0. 1. 0. 0. 1. 1. 1. 1. 0. 0. 1. 1. 1.
      1. 1. 1. 2. 2. 5. 1. 5. 3. 9. 15. 82. 215. 239. 221. 19. 87. 219.
      245. 213. 97. 16. 10. 6. 5. 4. 3. 3. 2. 2. 2. 1. 1. 1. 1. 0. 1. 1.
      1. 1. 1. 0. 0. 0. 0. 0. 0. 1. 1. 1. 1. 1. 1. 2. 2. 4. 4. 5. 2. 9.
      10. 110. 226. 239. 232. 19. 84. 217. 242. 206. 92. 12. 8. 7. 5. 4.
      3. 3. 2. 2. 2. 1. 1. 1. 1. 1. 1. 1. 1. 2. 1. 0. 0. 0. 0. 1. 1. 1.
      1. 1. 1. 1. 1. 2. 2. 2. 2. 6. 5. 8. 16. 127. 234. 245. 232. 18.
      84. 214. 246. 199. 99. 15. 10. 7. 5. 4. 3. 3. 2. 2. 2. 2. 1. 1. 1.
      0. 0. 0. 0. 2. 1. 1. 0. 0. 0. 1. 1. 1. 1. 1. 1. 1. 1. 1. 2. 3. 5.
      5. 5. 10. 15. 127. 236. 246. 228. 15. 103. 218. 250. 202. 94. 12.
      10. 7. 5. 4. 3. 3. 2. 2. 2. 2. 2. 1. 1. 1. 1. 1. 1. 1. 1. 1. 0. 0.
      0. 1. 1. 1. 1. 1. 1. 1. 1. 2. 2. 2. 3. 4. 5. 9. 14. 123. 240. 245.
      216. 14. 118. 215. 248. 193. 82. 17. 8. 7. 5. 4. 3. 3. 2. 2. 2. 2.
      2. 1. 1. 1. 1. 1. 1. 1. 1. 1. 0. 0. 1. 1. 1. 1. 1. 1. 1. 1. 2. 2.
      2. 3. 4. 4. 5. 9. 15. 115. 247. 245. 196. 14. 131. 223. 250. 160.
      43. 17. 8. 7. 5. 4. 3. 3. 2. 1. 2. 2. 1. 1. 1. 1. 1. 1. 1. 1. 1.
      1. 1. 1. 1. 1. 1. 1. 1. 1. 1. 1. 2. 2. 2. 4. 4. 5. 6. 9. 15. 104.
      252. 246. 173. 13. 137. 227. 247. 140. 15. 15. 8. 7. 5. 4. 3. 3.
      2. 2. 2. 1. 1. 1. 1. 1. 1. 1. 1. 1. 1. 1. 1. 1. 1. 1. 1. 1. 1. 1.
      1. 1. 2. 2. 2. 4. 3. 4. 6. 8. 15. 89. 253. 243. 148. 13. 140. 226.
      243. 147. 12. 15. 9. 6. 5. 4. 3. 3. 2. 2. 2. 1. 1. 1. 1. 1. 1. 1.
      0. 1. 1. 1. 1. 1. 1. 1. 1. 1. 1. 1. 1. 1. 2. 2. 2. 3. 3. 4. 7. 8.
      16. 74. 249. 245. 138. 13. 141. 233. 243. 154. 8. 10. 10. 6. 4. 3.
      3. 3. 2. 1. 2. 1. 1. 1. 1. 1. 1. 1. 1. 1. 1. 1. 1. 1. 1. 1. 0. 1.
      1. 1. 1. 1. 1. 2. 2. 3. 4. 4. 7. 8. 16. 60. 242. 241. 134. 14.
      132. 228. 239. 158. 12. 12. 8. 5. 4. 3. 3. 2. 2. 1. 1. 1. 1. 1. 1.
      1. 1. 1. 1. 1. 1. 1. 1. 1. 1. 0. 0. 1. 1. 1. 1. 1. 1. 1. 2. 3. 4.
      4. 6. 7. 14. 50. 235. 244. 140. 11. 128. 218. 231. 162. 12. 9. 9.
      5. 4. 3. 2. 2. 2. 1. 1. 1. 1. 1. 1. 1. 1. 1. 1. 0. 0. 1. 1. 1. 0.
      0. 0. 1. 1. 1. 1. 1. 1. 1. 1. 4. 2. 5. 2. 10. 18. 31. 230. 238.
      137. 9. 111. 199. 216. 164. 9. 10. 7. 4. 4. 2. 2. 1. 1. 1. 1. 1.
      1. 1. 1. 1. 0. 0. 1. 0. 0. 0. 0. 0. 0. 0. 0. 1. 1. 1. 1. 1. 1. 1.
      1. 1. 3. 2. 10. 2. 10. 31. 220. 219. 140. 8. 77. 153. 179. 121.
      10. 9. 3. 4. 3. 2. 1. 1. 1. 1. 1. 1. 1. 1. 1. 0. 0. 0. 0. 0. 0. 0.
      0. 0. 0. 0. 0. 1. 1. 1. 1. 1. 1. 1. 1. 6. 0. 4. 3. 5. 10. 11. 205.
      188. 111. 8. 15. 36. 55. 27. 8. 7. 4. 3. 2. 1. 1. 1. 1. 1. 0. 1.
      1. 1. 1. 0. 0. 0. 0. 0. 0. 0. 0. 0. 0. 0. 0. 1. 1. 1. 1. 1. 1. 1.
      1. 1. 2. 0. 5. 5. 7. 12. 47. 70. 17. 3. 5. 9. 7. 4. 4. 1. 4. 3. 2.
      1. 1. 1. 1. 1. 1. 1. 1. 1. 1. 0. 0. 0. 0. 0. 0. 0. 0. 0. 0. 0. 0.
      0. 0. 0. 1. 1. 1. 1. 1. 1. 2. 4. 0. 5. 2. 5. 6. 10. 5. 0. 5. 3. 4.
      7. 3. 4. 1. 2. 2. 1. 1. 1. 1. 1. 1. 1. 1. 1. 1. 0. 0. 0. 0. 0. 0.
      0. 0. 0. 0. 0. 0. 0. 0. 0. 0. 1. 1. 1. 1. 3. 2. 3. 0. 2. 2. 5. 7.
      1. 5. 5. 3. 0. 5. 0. 0. 5. 1. 2. 1. 1. 1. 1. 1. 1. 1. 0. 1. 1. 0.
      0. 0. 0. 0. 0. 0. 0. 0. 0. 0. 0. 0. 0. 0. 0. 0. 1. 1. 1. 1. 1. 0.
      1. 4. 3. 1. 2. 1. 6. 0. 0. 1. 2. 2. 3. 3. 0. 3. 1. 1. 1. 1. 1. 1.
      1. 0. 0. 0. 0. 0. 0. 0. 0. 0. 0. 0. 0. 0. 0. 0. 0. 0. 0. 0. 0. 0.
      1. 1. 1. 1. 1. 0. 3. 0. 2. 2. 4. 2. 1. 2. 1. 1. 1. 1. 1. 1. 1. 1.
      1. 1. 1. 1. 1. 1. 1. 1. 0. 0. 0. 0. 0. 0. 0. 0. 0. 0. 0. 0. 0. 0.
      0. 0. 0. 0. 0. 0. 1. 1. 1. 1. 1. 1. 1. 1. 1. 1. 2. 2. 1. 2. 1. 1.
      1. 1. 1. 1. 1. 1. 1. 1. 1. 1. 1. 1. 0. 0. 0. 0. 0. 0. 0. 0. 0. 0.
      0. 0. 0. 0. 0. 0. 0. 0. 0. 0. 0. 0. 1. 1. 1. 1. 1. 1. 0. 0. 1. 1.
      1. 1. 2. 2. 1. 1. 1. 1. 1. 1. 1. 1. 1. 1. 1. 1. 0. 0. 0. 0. 0. 0.
      0. 0. 0. 0. 0. 0. 0. 0. 0. 0. 0. 0. 0. 0. 0. 0. 0. 0. 1. 1. 1. 1.
      1. 1. 1. 1. 1. 1. 1. 1. 1. 1. 1. 1. 1. 1. 1. 1. 1. 1. 1. 1. 1. 1.
      0. 0. 0. 0. 0. 0. 0. 0. 0. 0. 0. 0. 0. 0. 0. 0. 0. 0. 0. 0. 0. 0.
      0. 0. 0. 0. 0. 0. 1. 1. 1. 1. 1. 1. 1. 1. 1. 1. 1. 1. 1. 1. 1. 1.
      1. 1. 1. 1. 1. 1. 0. 0. 0. 0. 0. 0. 0. 0. 0. 0. 0. 0. 0. 0. 0. 0.
      0. 0. 0. 0. 0. 0. 0. 0. 0. 0. 0. 0. 0. 0. 0. 0. 0. 0. 0. 0. 1. 1.
      0. 0. 0. 0. 0. 0. 0. 0. 1. 1. 1. 0. 0. 0. 0. 0. 0. 0. 0. 0. 0. 0.
      0. 0. 0. 0. 0. 0. 0. 0. 0. 0. 0. 0. 0. 0. 0. 0. 0. 0. 0. 0. 0. 0.
      0. 0. 0. 0. 1. 1. 0. 0. 0. 0. 0. 0. 0. 0. 0. 0. 0. 0. 0. 0. 0. 0.
      0. 0. 0. 0. 0. 0. 0. 0. 0. 0. 0. 0. 0. 0. 0. 0. 0. 0. 0. 0. 0. 0.
      0. 0. 1. 1. 0. 0. 0. 0. 0. 0. 1. 1. 0. 0. 0. 0. 0. 0. 0. 0. 0. 0.
      0. 0. 0. 0. 0. 0. 0. 0. 0. 0. 0. 0. 0. 0. 0. 0. 0. 0. 0. 0. 0. 0.
      0. 0. 0. 0. 0. 1. 1. 1. 1. 0. 0. 0. 0. 0. 0. 0. 0. 0. 0. 0. 0. 0.
      0. 0. 0. 0. 0. 0. 0. 0. 0. 0. 0. 0. 0. 0. 0. 0. 0. 0. 0. 0. 0. 0.
      0. 0. 0. 0. 0. 1. 1. 1. 1. 1. 1. 1. 0. 0. 0. 0. 0. 0. 1. 1. 0. 0.
      0. 0. 0. 0. 0. 0. 0. 0. 0. 0. 0. 0. 0. 0. 0. 0. 0. 0. 0. 0. 0. 0.
      0. 0. 0. 0. 0. 0. 0. 0. 0. 0. 0. 1. 1. 1. 1. 1. 1. 1. 0. 0. 0. 0.
      0. 0. 1. 1. 0. 0. 0. 0.</_>
    <_>
      14. 15. 20. 21. 16. 10. 6. 4. 1. 1. 1. 1. 2. 4. 8. 11. 7. 6. 4.
      11. 15. 17. 11. 7. 4. 3. 1. 2. 5. 9. 13. 18. 22. 24. 29. 31. 32.
      33. 33. 30. 32. 31. 30. 30. 29. 29. 30. 31. 31. 31. 17. 18. 22.
      23. 19. 13. 9. 6. 3. 3. 3. 2. 2. 3. 6. 8. 6. 3. 2. 12. 21. 25. 17.
      10. 7. 6. 4. 3. 6. 9. 13. 17. 22. 24. 28. 30. 30. 31. 33. 32. 31.
      31. 30. 29. 29. 28. 29. 30. 30. 30. 22. 21. 24. 25. 21. 17. 12. 8.
      6. 5. 5. 4. 3. 2. 2. 4. 4. 2. 1. 12. 23. 31. 24. 16. 11. 10. 7. 5.
      7. 11. 14. 14. 20. 23. 27. 29. 28. 30. 32. 32. 31. 30. 30. 29. 28.
      28. 28. 29. 30. 30. 25. 23. 24. 25. 23. 19. 15. 10. 7. 7. 7. 7. 5.
      3. 1. 1. 2. 2. 1. 11. 21. 30. 27. 22. 14. 13. 12. 9. 10. 15. 17.
      16. 19. 21. 26. 29. 29. 30. 31. 30. 31. 30. 30. 29. 28. 27. 28.
      29. 30. 30. 26. 24. 25. 25. 24. 21. 17. 12. 8. 7. 8. 9. 9. 5. 2.
      1. 2. 2. 1. 10. 19. 30. 28. 22. 16. 15. 16. 15. 16. 22. 26. 24.
      22. 22. 25. 27. 28. 30. 31. 31. 31. 30. 30. 29. 29. 28. 28. 29.
      29. 29. 26. 25. 25. 25. 24. 23. 20. 15. 9. 7. 7. 10. 10. 7. 3. 1.
      2. 2. 1. 9. 21. 32. 28. 20. 15. 14. 17. 19. 20. 28. 36. 36. 31.
      27. 26. 26. 26. 28. 30. 31. 31. 30. 30. 29. 29. 28. 28. 29. 29.
      29. 25. 25. 25. 25. 24. 24. 22. 18. 11. 7. 5. 8. 10. 8. 4. 2. 2.
      3. 3. 10. 20. 31. 27. 20. 13. 11. 16. 20. 22. 32. 44. 49. 44. 39.
      34. 31. 27. 27. 29. 29. 30. 29. 29. 29. 28. 28. 28. 29. 30. 30.
      24. 24. 25. 25. 23. 24. 23. 19. 12. 7. 4. 7. 9. 7. 4. 2. 2. 6. 5.
      10. 16. 27. 27. 22. 12. 10. 15. 21. 23. 35. 50. 57. 55. 50. 44.
      38. 31. 28. 28. 29. 29. 29. 28. 29. 28. 28. 28. 29. 29. 29. 19.
      21. 24. 25. 24. 23. 21. 18. 12. 6. 2. 3. 4. 5. 4. 1. 3. 5. 9. 11.
      16. 24. 26. 20. 10. 5. 15. 20. 24. 33. 43. 61. 68. 61. 53. 45. 36.
      28. 25. 28. 30. 29. 28. 28. 27. 26. 28. 30. 29. 30. 15. 17. 20.
      23. 24. 23. 20. 18. 12. 6. 3. 3. 3. 3. 3. 1. 2. 5. 9. 11. 16. 22.
      24. 18. 9. 3. 12. 20. 25. 31. 39. 54. 62. 65. 64. 54. 39. 28. 23.
      22. 24. 28. 30. 30. 27. 26. 27. 27. 29. 30. 10. 10. 13. 18. 22.
      21. 19. 18. 11. 5. 2. 2. 1. 1. 1. 1. 1. 5. 9. 11. 14. 19. 20. 16.
      10. 2. 9. 20. 26. 30. 34. 45. 53. 58. 64. 62. 48. 30. 21. 22. 21.
      24. 26. 25. 24. 26. 27. 26. 28. 29. 7. 5. 7. 13. 17. 18. 17. 17.
      11. 5. 2. 1. 0. 0. 1. 0. 1. 4. 8. 10. 12. 16. 17. 15. 11. 3. 8.
      17. 24. 28. 29. 35. 46. 51. 58. 62. 52. 34. 20. 14. 18. 20. 22.
      22. 22. 24. 25. 26. 28. 28. 6. 3. 3. 8. 13. 14. 15. 16. 11. 5. 1.
      0. 0. 0. 0. 0. 0. 3. 7. 9. 9. 12. 15. 14. 9. 4. 6. 12. 18. 25. 26.
      27. 33. 45. 55. 56. 53. 46. 30. 13. 15. 16. 19. 22. 21. 20. 22.
      25. 27. 28. 5. 3. 3. 5. 9. 10. 12. 13. 11. 5. 1. 0. 0. 0. 0. 0. 0.
      2. 5. 7. 7. 9. 11. 11. 7. 5. 5. 8. 14. 20. 23. 22. 23. 36. 48. 54.
      58. 57. 46. 32. 21. 14. 11. 13. 16. 17. 19. 22. 26. 27. 4. 4. 4.
      5. 6. 8. 10. 10. 10. 4. 1. 1. 0. 0. 1. 0. 0. 1. 5. 7. 6. 6. 8. 8.
      8. 6. 5. 8. 10. 14. 18. 18. 21. 29. 40. 51. 60. 63. 59. 54. 44.
      33. 20. 14. 12. 13. 15. 18. 23. 24. 3. 4. 5. 5. 6. 7. 8. 8. 9. 4.
      2. 1. 0. 0. 0. 0. 0. 1. 4. 6. 5. 4. 5. 5. 8. 6. 5. 8. 8. 9. 13.
      13. 16. 23. 32. 42. 58. 72. 75. 69. 66. 60. 47. 29. 14. 8. 11. 17.
      20. 22. 2. 6. 4. 2. 7. 7. 5. 8. 7. 5. 2. 1. 0. 0. 0. 0. 0. 1. 3.
      5. 7. 7. 5. 3. 4. 6. 8. 10. 12. 12. 10. 8. 11. 17. 25. 33. 46. 64.
      82. 93. 88. 79. 74. 58. 42. 23. 5. 11. 17. 20. 1. 5. 4. 2. 5. 6.
      4. 4. 5. 4. 2. 1. 0. 0. 0. 0. 0. 1. 2. 4. 6. 9. 8. 7. 6. 7. 9. 12.
      15. 15. 12. 8. 7. 10. 15. 23. 34. 50. 70. 85. 109. 108. 101. 82.
      66. 50. 29. 19. 15. 17. 4. 4. 5. 8. 6. 3. 2. 4. 3. 3. 2. 1. 1. 0.
      0. 0. 1. 2. 3. 4. 7. 11. 13. 13. 10. 10. 11. 14. 18. 20. 15. 9. 7.
      6. 8. 14. 20. 31. 52. 71. 96. 120. 129. 116. 93. 74. 55. 37. 21.
      17. 5. 3. 4. 6. 5. 4. 3. 1. 1. 1. 2. 2. 1. 0. 0. 0. 0. 4. 6. 7. 9.
      13. 17. 19. 16. 15. 14. 16. 21. 24. 18. 11. 8. 6. 6. 9. 11. 17.
      33. 49. 81. 114. 133. 138. 122. 103. 81. 51. 33. 21. 5. 6. 7. 4.
      3. 7. 6. 0. 0. 0. 1. 1. 0. 0. 0. 0. 0. 5. 9. 12. 13. 16. 20. 23.
      23. 21. 18. 19. 23. 26. 21. 14. 7. 6. 5. 5. 5. 8. 16. 24. 66. 103.
      129. 146. 136. 124. 108. 75. 46. 25. 6. 7. 11. 12. 9. 2. 1. 3. 0.
